{"learner":{"attributes":{},"feature_names":["num_instructions","num_blocks","num_edges","num_calls","num_cond_jumps","has_loop","num_mem_reads","num_mem_writes","num_stack_writes","num_non_stack_writes","num_rip_relative_accesses","num_arg_based_mem_accesses","num_small_constants","num_power2_constants","has_page_constant_0xfff","has_page_size_0x1000","has_negative_one","num_cmp","num_test","num_and_or_xor","num_add_sub","num_lea","num_shifts","has_call_under_branch","has_write_under_branch","has_short_error_return","has_return_zero","has_return_negative","num_indirect_calls","num_indirect_jumps","has_jump_table_like_pattern","num_scaled_index_memory_accesses","region_max_num_instructions","region_max_num_successors","region_max_num_predecessors","region_max_num_calls","region_max_num_cond_jumps","region_max_num_mem_reads","region_max_num_mem_writes","region_max_num_stack_writes","region_max_num_non_stack_writes","region_max_num_rip_relative_accesses","region_max_num_arg_based_mem_accesses","region_max_num_small_constants","region_max_num_power2_constants","region_max_has_page_constant_0xfff","region_max_has_page_size_0x1000","region_max_has_negative_one","region_max_num_cmp","region_max_num_test","region_max_num_and_or_xor","region_max_num_add_sub","region_max_num_lea","region_max_num_shifts","region_max_has_call","region_max_has_mem_write","region_max_has_return_zero","region_max_has_return_negative","region_max_num_indirect_calls","region_max_num_indirect_jumps","region_max_num_scaled_index_memory_accesses","branch_region_max_num_instructions","branch_region_max_num_successors","branch_region_max_num_predecessors","branch_region_max_num_calls","branch_region_max_num_cond_jumps","branch_region_max_num_mem_reads","branch_region_max_num_mem_writes","branch_region_max_num_stack_writes","branch_region_max_num_non_stack_writes","branch_region_max_num_rip_relative_accesses","branch_region_max_num_arg_based_mem_accesses","branch_region_max_num_small_constants","branch_region_max_num_power2_constants","branch_region_max_has_page_constant_0xfff","branch_region_max_has_page_size_0x1000","branch_region_max_has_negative_one","branch_region_max_num_cmp","branch_region_max_num_test","branch_region_max_num_and_or_xor","branch_region_max_num_add_sub","branch_region_max_num_lea","branch_region_max_num_shifts","branch_region_max_has_call","branch_region_max_has_mem_write","branch_region_max_has_return_zero","branch_region_max_has_return_negative","branch_region_max_num_indirect_calls","branch_region_max_num_indirect_jumps","branch_region_max_num_scaled_index_memory_accesses","loop_region_max_num_instructions","loop_region_max_num_successors","loop_region_max_num_predecessors","loop_region_max_num_calls","loop_region_max_num_cond_jumps","loop_region_max_num_mem_reads","loop_region_max_num_mem_writes","loop_region_max_num_stack_writes","loop_region_max_num_non_stack_writes","loop_region_max_num_rip_relative_accesses","loop_region_max_num_arg_based_mem_accesses","loop_region_max_num_small_constants","loop_region_max_num_power2_constants","loop_region_max_has_page_constant_0xfff","loop_region_max_has_page_size_0x1000","loop_region_max_has_negative_one","loop_region_max_num_cmp","loop_region_max_num_test","loop_region_max_num_and_or_xor","loop_region_max_num_add_sub","loop_region_max_num_lea","loop_region_max_num_shifts","loop_region_max_has_call","loop_region_max_has_mem_write","loop_region_max_has_return_zero","loop_region_max_has_return_negative","loop_region_max_num_indirect_calls","loop_region_max_num_indirect_jumps","loop_region_max_num_scaled_index_memory_accesses","num_block_regions","has_block_region","num_branch_regions","has_branch_region","num_loop_regions","has_loop_region","eff_privilege_identity","eff_capability","eff_exec","eff_file_mutation","eff_mount","eff_rlimit","eff_total","eff_ncats","reach_privilege_identity","reach_capability","reach_exec","reach_file_mutation","reach_mount","reach_rlimit","reach_any","reach_ncats","reach_dist","reach_neff_callees","s_count","s_path","s_syspath","s_shell","s_cred","s_cap","s_fmt","p_nparam","p_nptr","eff_file_read","reach_file_read","fr_computed_path","writes_send_buffer","name_auth","name_passwd","name_password","name_pubkey","name_cred","name_login","name_verify","name_access","name_perm","name_policy","name_sudoers","name_cmnd","name_command","name_refer","name_privile","name_principal","name_allow","name_deny","name_permit","name_grant","name_secure","name_session","name_ident","name_token","name_sign","name_chroot","name_setuid","name_exec","name_match","name_check","file_access","file_auth","file_cap","file_chan","file_cred","file_exec","file_ftpcmd","file_key","file_login","file_pass","file_perm","file_polic","file_priv","file_privop","file_pty","file_referer","file_secure","file_session","file_sftp","file_sign","file_sudoers","file_user","n_str_param","pname_addr","pname_auth","pname_cmd","pname_command","pname_cred","pname_dir","pname_file","pname_gid","pname_host","pname_key","pname_mode","pname_name","pname_passwd","pname_password","pname_path","pname_perm","pname_principal","pname_pubkey","pname_pwd","pname_refer","pname_sig","pname_token","pname_uid","pname_user","ptype_cap","ptype_gid_t","ptype_mode_t","ptype_passwd","ptype_sockaddr","ptype_uid_t","lv_addr","lv_cap","lv_cmd","lv_command","lv_cookie","lv_cred","lv_crypt","lv_file","lv_gid","lv_group","lv_hash","lv_host","lv_key","lv_mode","lv_nonce","lv_passwd","lv_password","lv_path","lv_perm","lv_principal","lv_priv","lv_pubkey","lv_pwd","lv_refer","lv_salt","lv_secret","lv_session","lv_shadow","lv_sig","lv_ticket","lv_token","lv_uid","lv_user","ty_cap_","ty_group","ty_in_addr","ty_pam","ty_passwd","ty_rlimit","ty_sockaddr","ty_spwd","ty_stat","ty_termios","ty_ucred"],"feature_types":[],"gradient_booster":{"model":{"cats":{"enc":[],"feature_segments":[],"sorted_idx":[]},"gbtree_model_param":{"num_parallel_tree":"1","num_trees":"300"},"iteration_indptr":[0,1,2,3,4,5,6,7,8,9,10,11,12,13,14,15,16,17,18,19,20,21,22,23,24,25,26,27,28,29,30,31,32,33,34,35,36,37,38,39,40,41,42,43,44,45,46,47,48,49,50,51,52,53,54,55,56,57,58,59,60,61,62,63,64,65,66,67,68,69,70,71,72,73,74,75,76,77,78,79,80,81,82,83,84,85,86,87,88,89,90,91,92,93,94,95,96,97,98,99,100,101,102,103,104,105,106,107,108,109,110,111,112,113,114,115,116,117,118,119,120,121,122,123,124,125,126,127,128,129,130,131,132,133,134,135,136,137,138,139,140,141,142,143,144,145,146,147,148,149,150,151,152,153,154,155,156,157,158,159,160,161,162,163,164,165,166,167,168,169,170,171,172,173,174,175,176,177,178,179,180,181,182,183,184,185,186,187,188,189,190,191,192,193,194,195,196,197,198,199,200,201,202,203,204,205,206,207,208,209,210,211,212,213,214,215,216,217,218,219,220,221,222,223,224,225,226,227,228,229,230,231,232,233,234,235,236,237,238,239,240,241,242,243,244,245,246,247,248,249,250,251,252,253,254,255,256,257,258,259,260,261,262,263,264,265,266,267,268,269,270,271,272,273,274,275,276,277,278,279,280,281,282,283,284,285,286,287,288,289,290,291,292,293,294,295,296,297,298,299,300],"tree_info":[0,0,0,0,0,0,0,0,0,0,0,0,0,0,0,0,0,0,0,0,0,0,0,0,0,0,0,0,0,0,0,0,0,0,0,0,0,0,0,0,0,0,0,0,0,0,0,0,0,0,0,0,0,0,0,0,0,0,0,0,0,0,0,0,0,0,0,0,0,0,0,0,0,0,0,0,0,0,0,0,0,0,0,0,0,0,0,0,0,0,0,0,0,0,0,0,0,0,0,0,0,0,0,0,0,0,0,0,0,0,0,0,0,0,0,0,0,0,0,0,0,0,0,0,0,0,0,0,0,0,0,0,0,0,0,0,0,0,0,0,0,0,0,0,0,0,0,0,0,0,0,0,0,0,0,0,0,0,0,0,0,0,0,0,0,0,0,0,0,0,0,0,0,0,0,0,0,0,0,0,0,0,0,0,0,0,0,0,0,0,0,0,0,0,0,0,0,0,0,0,0,0,0,0,0,0,0,0,0,0,0,0,0,0,0,0,0,0,0,0,0,0,0,0,0,0,0,0,0,0,0,0,0,0,0,0,0,0,0,0,0,0,0,0,0,0,0,0,0,0,0,0,0,0,0,0,0,0,0,0,0,0,0,0,0,0,0,0,0,0,0,0,0,0,0,0,0,0,0,0,0,0,0,0,0,0,0,0,0,0,0,0,0,0,0,0,0,0,0,0],"trees":[{"base_weights":[-1.5346015E-2,-5.1815444E-1,5.0245624E0,-8.2787544E-1,4.0056314E0,2.5690278E-1,6.99312E-2,-9.775501E-1,2.9171085E0,4.3948174E0,1.1412857E0,-1.0460647E0,1.9408938E-1,6.6356966E-3,1.6299272E-1,2.3169862E-1,9.428473E-2,1.2147372E-1,-3.5561305E-2,-5.461511E-2,1.341479E-1],"categories":[],"categories_nodes":[],"categories_segments":[],"categories_sizes":[],"default_left":[0,0,0,0,0,0,0,0,0,0,0,0,0,0,0,0,0,0,0,0,0],"id":0,"left_children":[1,3,5,7,9,-1,-1,11,13,15,17,19,-1,-1,-1,-1,-1,-1,-1,-1,-1],"loss_changes":[9.1655066E2,4.6406836E2,6.31604E0,1.7583342E2,1.8665344E1,0E0,0E0,1.0310681E2,1.1125275E1,2.2737427E0,1.1015424E1,5.364734E1,0E0,0E0,0E0,0E0,0E0,0E0,0E0,0E0,0E0],"parents":[2147483647,0,0,1,1,2,2,3,3,4,4,7,7,8,8,9,9,10,10,11,11],"right_children":[2,4,6,8,10,-1,-1,12,14,16,18,20,-1,-1,-1,-1,-1,-1,-1,-1,-1],"split_conditions":[1E0,1E0,1E0,1E0,9E0,2.5690278E-1,6.99312E-2,1E0,2E0,1E0,1E0,1E0,1.9408938E-1,6.6356966E-3,1.6299272E-1,2.3169862E-1,9.428473E-2,1.2147372E-1,-3.5561305E-2,-5.461511E-2,1.341479E-1],"split_indices":[131,156,130,170,43,0,0,162,7,210,26,163,0,0,0,0,0,0,0,0,0],"split_type":[0,0,0,0,0,0,0,0,0,0,0,0,0,0,0,0,0,0,0,0,0],"sum_hessian":[3.596583E2,3.2784763E2,3.1810656E1,3.076045E2,2.0243145E1,3.0440819E1,1.3698368E0,2.964936E2,1.1110899E1,1.7351267E1,2.891878E0,2.9314508E2,3.3484902E0,1.3698368E0,9.741062E0,1.5068206E1,2.2830615E0,1.522041E0,1.3698368E0,2.902532E2,2.891878E0],"tree_param":{"num_deleted":"0","num_feature":"283","num_nodes":"21","size_leaf_vector":"1"}},{"base_weights":[-9.550611E-3,-4.8693943E-1,4.082181E0,-7.90841E-1,1.8089066E-1,2.104616E-1,2.5033224E-2,-8.4260243E-1,1.6030921E-1,-1.4597073E-1,-1.0380522E0,-1.3902019E-2,7.116339E-2,-5.457545E-2,1.1641679E-1],"categories":[],"categories_nodes":[],"categories_segments":[],"categories_sizes":[],"default_left":[0,0,0,0,0,0,0,0,0,0,0,0,0,0,0],"id":1,"left_children":[1,3,5,7,-1,-1,-1,9,-1,11,13,-1,-1,-1,-1],"loss_changes":[7.06698E2,4.069947E2,1.509314E1,6.527777E1,0E0,0E0,0E0,4.0611526E1,0E0,1.4230997E1,4.4584106E1,0E0,0E0,0E0,0E0],"parents":[2147483647,0,0,1,1,2,2,3,3,7,7,9,9,10,10],"right_children":[2,4,6,8,-1,-1,-1,10,-1,12,14,-1,-1,-1,-1],"split_conditions":[1E0,1E0,1E0,1E0,1.8089066E-1,2.104616E-1,2.5033224E-2,1E0,1.6030921E-1,2E0,1E0,-1.3902019E-2,7.116339E-2,-5.457545E-2,1.1641679E-1],"split_indices":[132,156,130,162,0,0,0,150,0,50,163,0,0,0,0],"split_type":[0,0,0,0,0,0,0,0,0,0,0,0,0,0,0],"sum_hessian":[3.5977066E2,3.229702E2,3.6800453E1,3.014586E2,2.1511606E1,3.5370453E1,1.4300003E0,2.9838373E2,3.074876E0,6.575682E1,2.326269E2,6.141117E1,4.3456454E0,2.2965582E2,2.9710793E0],"tree_param":{"num_deleted":"0","num_feature":"283","num_nodes":"15","size_leaf_vector":"1"}},{"base_weights":[-3.2765795E-2,-4.857103E-1,3.4945698E0,-7.967637E-1,2.9745898E0,1.7978877E-1,1.3746095E0,-9.451435E-1,2.4697964E0,3.194176E0,1.3808682E0,-9.7492095E-3,1.10750094E-1,-1.0126008E0,1.5940905E-1,-3.1622324E-2,2.8005662E0,1.6833636E-1,1.1938657E0,8.939345E-2,1.1511918E-1,-5.2400894E-2,1.6659792E-1,1.4871442E-1,3.37724E-2,7.4893184E-2,1.4424345E-2,-3.2826494E-2,3.913949E-2],"categories":[],"categories_nodes":[],"categories_segments":[],"categories_sizes":[],"default_left":[0,0,0,0,0,0,0,0,0,0,0,0,0,0,0,0,0,0,0,0,0,0,0,0,0,0,0,0,0],"id":2,"left_children":[1,3,5,7,9,-1,11,13,15,17,19,-1,-1,21,-1,-1,23,-1,25,27,-1,-1,-1,-1,-1,-1,-1,-1,-1],"loss_changes":[5.7030646E2,3.4278708E2,3.772766E0,1.433681E2,4.7920685E0,0E0,5.0087767E0,8.103563E1,1.5028526E1,3.6950989E0,5.6804705E0,0E0,0E0,4.5858246E1,0E0,0E0,2.3691788E0,0E0,4.8286343E-1,2.1172886E0,0E0,0E0,0E0,0E0,0E0,0E0,0E0,0E0,0E0],"parents":[2147483647,0,0,1,1,2,2,3,3,4,4,6,6,7,7,8,8,9,9,10,10,13,13,16,16,18,18,19,19],"right_children":[2,4,6,8,10,-1,12,14,16,18,20,-1,-1,22,-1,-1,24,-1,26,28,-1,-1,-1,-1,-1,-1,-1,-1,-1],"split_conditions":[1E0,1E0,1E0,1E0,5E0,1.7978877E-1,1E0,1E0,7E0,1E0,7E0,-9.7492095E-3,1.10750094E-1,1E0,1.5940905E-1,-3.1622324E-2,1E1,1.6833636E-1,9E0,5E0,1.1511918E-1,-5.2400894E-2,1.6659792E-1,1.4871442E-1,3.37724E-2,7.4893184E-2,1.4424345E-2,-3.2826494E-2,3.913949E-2],"split_indices":[131,156,138,170,63,0,150,162,0,210,62,0,0,171,0,0,18,0,7,64,0,0,0,0,0,0,0,0,0],"split_type":[0,0,0,0,0,0,0,0,0,0,0,0,0,0,0,0,0,0,0,0,0,0,0,0,0,0,0,0,0],"sum_hessian":[3.5489514E2,3.1527325E2,3.962188E1,2.899764E2,2.5296831E1,3.7152107E1,2.4697697E0,2.7805667E2,1.1919747E1,2.1350845E1,3.9459856E0,1.1290455E0,1.3407242E0,2.7433447E2,3.7222128E0,1.060589E0,1.08591585E1,1.9026476E1,2.324369E0,2.099962E0,1.8460236E0,2.7286877E2,1.4656718E0,9.669147E0,1.1900121E0,1.2501886E0,1.0741802E0,1.0372765E0,1.0626855E0],"tree_param":{"num_deleted":"0","num_feature":"283","num_nodes":"29","size_leaf_vector":"1"}},{"base_weights":[9.855067E-3,-4.4392335E-1,3.115125E0,-7.622861E-1,2.6732833E0,1.6020368E-1,-9.938152E-3,-9.1373235E-1,2.2729151E0,2.84366E0,1.2266876E0,-9.777431E-1,1.3398044E-1,-1.143035E-2,2.534536E0,2.9262629E0,3.1425502E-2,-2.1828687E-2,1.1356743E-1,-5.1526655E-2,1.1363392E-1,7.319089E-2,1.4770015E-1,1.5108648E-1,4.129121E-2],"categories":[],"categories_nodes":[],"categories_segments":[],"categories_sizes":[],"default_left":[0,0,0,0,0,0,0,0,0,0,0,0,0,0,0,0,0,0,0,0,0,0,0,0,0],"id":3,"left_children":[1,3,5,7,9,-1,-1,11,13,15,17,19,-1,-1,21,23,-1,-1,-1,-1,-1,-1,-1,-1,-1],"loss_changes":[5.0419012E2,3.118731E2,1.4084106E1,1.3264796E2,3.6969757E0,0E0,0E0,6.501494E1,9.601982E0,2.7942963E0,9.38469E0,4.8199814E1,0E0,0E0,1.3187027E0,2.3449402E0,0E0,0E0,0E0,0E0,0E0,0E0,0E0,0E0,0E0],"parents":[2147483647,0,0,1,1,2,2,3,3,4,4,7,7,8,8,9,9,10,10,11,11,14,14,15,15],"right_children":[2,4,6,8,10,-1,-1,12,14,16,18,20,-1,-1,22,24,-1,-1,-1,-1,-1,-1,-1,-1,-1],"split_conditions":[1E0,1E0,2E0,1E0,5E0,1.6020368E-1,-9.938152E-3,1E0,2E0,4E0,4.1E1,1E0,1.3398044E-1,-1.143035E-2,1.5E1,1E0,3.1425502E-2,-2.1828687E-2,1.1356743E-1,-5.1526655E-2,1.1363392E-1,7.319089E-2,1.4770015E-1,1.5108648E-1,4.129121E-2],"split_indices":[131,156,130,170,63,0,0,162,7,22,61,163,0,0,32,31,0,0,0,0,0,0,0,0,0],"split_type":[0,0,0,0,0,0,0,0,0,0,0,0,0,0,0,0,0,0,0,0,0,0,0,0,0],"sum_hessian":[3.5582748E2,3.1120728E2,4.462021E1,2.830542E2,2.815309E1,4.348613E1,1.1340785E0,2.702677E2,1.2786485E1,2.4322664E1,3.8304265E0,2.6625266E2,4.0150466E0,1.2226015E0,1.1563883E1,2.3138798E1,1.1838663E0,1.702259E0,2.1281676E0,2.6266962E2,3.5830505E0,4.5188704E0,7.045013E0,2.1713291E1,1.4255059E0],"tree_param":{"num_deleted":"0","num_feature":"283","num_nodes":"25","size_leaf_vector":"1"}},{"base_weights":[5.044637E-4,-4.47449E-1,2.8090591E0,-7.625751E-1,2.4654546E0,1.4280993E-1,4.0651005E-2,-9.0501755E-1,1.9949803E0,2.5534494E0,2.0524057E-2,-9.660125E-1,1.2110269E-1,4.7646007E-1,2.3891482E0,2.74936E0,1.0991576E0,-4.9026366E-2,6.4902745E-2,4.0183585E-2,-1.0926412E-2,1.2839292E-1,3.9052058E-2,1.4188978E-1,2.8995922E-2,-1.2252933E-2,1.0722919E-1],"categories":[],"categories_nodes":[],"categories_segments":[],"categories_sizes":[],"default_left":[0,0,0,0,0,0,0,0,0,0,0,0,0,0,0,0,0,0,0,0,0,0,0,0,0,0,0],"id":4,"left_children":[1,3,5,7,9,-1,-1,11,13,15,-1,17,-1,19,21,23,25,-1,-1,-1,-1,-1,-1,-1,-1,-1,-1],"loss_changes":[4.4596887E2,2.8250827E2,2.2658386E0,1.1046652E2,4.3912964E0,0E0,0E0,5.5861084E1,7.181511E0,5.1419525E0,0E0,9.8072815E0,0E0,1.1110954E0,1.0942345E0,3.0713196E0,7.6473393E0,0E0,0E0,0E0,0E0,0E0,0E0,0E0,0E0,0E0,0E0],"parents":[2147483647,0,0,1,1,2,2,3,3,4,4,7,7,8,8,9,9,11,11,13,13,14,14,15,15,16,16],"right_children":[2,4,6,8,10,-1,-1,12,14,16,-1,18,-1,20,22,24,26,-1,-1,-1,-1,-1,-1,-1,-1,-1,-1],"split_conditions":[1E0,1E0,1E0,1E0,1E0,1.4280993E-1,4.0651005E-2,1E0,5E0,9E0,2.0524057E-2,1E0,1.2110269E-1,1E1,2.9E1,3E0,5.4E1,-4.9026366E-2,6.4902745E-2,4.0183585E-2,-1.0926412E-2,1.2839292E-1,3.9052058E-2,1.4188978E-1,2.8995922E-2,-1.2252933E-2,1.0722919E-1],"split_indices":[131,156,130,170,60,0,0,162,12,43,0,160,0,0,10,22,61,0,0,0,0,0,0,0,0,0,0],"split_type":[0,0,0,0,0,0,0,0,0,0,0,0,0,0,0,0,0,0,0,0,0,0,0,0,0,0,0],"sum_hessian":[3.524785E2,3.0471786E2,4.7760624E1,2.756369E2,2.9080965E1,4.623772E1,1.522901E0,2.6273694E2,1.28999605E1,2.7654232E1,1.4267336E0,2.587038E2,4.033148E0,3.113617E0,9.786344E0,2.3586348E1,4.067884E0,2.5761914E2,1.0846639E0,2.0106087E0,1.1030083E0,8.270425E0,1.5159187E0,2.2366522E1,1.2198268E0,2.114559E0,1.9533249E0],"tree_param":{"num_deleted":"0","num_feature":"283","num_nodes":"27","size_leaf_vector":"1"}},{"base_weights":[2.9192323E-2,-4.0560067E-1,2.5620418E0,-7.222621E-1,2.2519379E0,1.314786E-1,-1.0658471E-2,-8.772639E-1,1.9400638E0,2.3164186E0,2.2615692E-2,-9.4183826E-1,1.1367929E-1,8.493201E-1,2.403683E0,2.3646655E0,3.0247033E-2,-5.0062437E-2,1.2578599E-1,6.9327265E-2,-2.1800255E-2,1.2709577E-1,3.476685E-2,1.20985106E-1,2.9214447E-2],"categories":[],"categories_nodes":[],"categories_segments":[],"categories_sizes":[],"default_left":[0,0,0,0,0,0,0,0,0,0,0,0,0,0,0,0,0,0,0,0,0,0,0,0,0],"id":5,"left_children":[1,3,5,7,9,-1,-1,11,13,15,-1,17,-1,19,21,23,-1,-1,-1,-1,-1,-1,-1,-1,-1],"loss_changes":[3.891181E2,2.55458E2,1.0262085E1,1.132332E2,2.7069855E0,0E0,0E0,5.424637E1,5.6353416E0,1.1288757E0,0E0,5.4212265E1,0E0,4.798984E0,6.191673E-1,1.5063324E0,0E0,0E0,0E0,0E0,0E0,0E0,0E0,0E0,0E0],"parents":[2147483647,0,0,1,1,2,2,3,3,4,4,7,7,8,8,9,9,11,11,13,13,14,14,15,15],"right_children":[2,4,6,8,10,-1,-1,12,14,16,-1,18,-1,20,22,24,-1,-1,-1,-1,-1,-1,-1,-1,-1],"split_conditions":[1E0,1E0,2E0,1E0,1E0,1.314786E-1,-1.0658471E-2,1E0,2E0,1E1,2.2615692E-2,1E0,1.1367929E-1,3E0,3.4E1,3.1E1,3.0247033E-2,-5.0062437E-2,1.2578599E-1,6.9327265E-2,-2.1800255E-2,1.2709577E-1,3.476685E-2,1.20985106E-1,2.9214447E-2],"split_indices":[131,156,130,170,273,0,0,162,4,37,0,163,0,39,3,4,0,0,0,0,0,0,0,0,0],"split_type":[0,0,0,0,0,0,0,0,0,0,0,0,0,0,0,0,0,0,0,0,0,0,0,0,0],"sum_hessian":[3.5139374E2,3.006274E2,5.076632E1,2.6927045E2,3.1356943E1,4.9611584E1,1.1547357E0,2.5508952E2,1.4180937E1,2.9995047E1,1.3618951E0,2.5065364E2,4.435878E0,5.0744214E0,9.106516E0,2.8801477E1,1.1935705E0,2.4711789E2,3.5357525E0,3.523119E0,1.5513026E0,7.9734006E0,1.1331152E0,2.7589512E1,1.2119654E0],"tree_param":{"num_deleted":"0","num_feature":"283","num_nodes":"25","size_leaf_vector":"1"}},{"base_weights":[1.3978433E-2,-3.9045435E-1,2.3749812E0,-6.33603E-1,1.4076735E0,1.2196856E-1,-1.0408399E-2,-7.7811235E-1,1.6428133E0,2.070375E0,9.208069E-1,-8.3604217E-1,2.443965E0,-1.1122605E-2,1.8050276E0,1.8852236E-2,2.2320678E0,1.5817222E-1,1.5094116E0,-4.4932995E-2,1.04401365E-1,1.401683E-1,3.536507E-2,9.540927E-2,1.2027125E-2,1.1676657E-1,3.9632093E-2,3.265382E-2,-3.6312785E-2,8.638072E-2,-1.3106033E-2],"categories":[],"categories_nodes":[],"categories_segments":[],"categories_sizes":[],"default_left":[0,0,0,0,0,0,0,0,0,0,0,0,0,0,0,0,0,0,0,0,0,0,0,0,0,0,0,0,0,0,0],"id":6,"left_children":[1,3,5,7,9,-1,-1,11,13,15,17,19,21,-1,23,-1,25,27,29,-1,-1,-1,-1,-1,-1,-1,-1,-1,-1,-1,-1],"loss_changes":[3.291918E2,1.2959093E2,8.893677E0,8.680523E1,9.506813E0,0E0,0E0,4.7801285E1,5.194481E0,3.041027E0,9.723562E0,4.6106415E1,8.7867355E-1,0E0,1.9106636E0,0E0,4.2785645E-2,5.1947465E0,5.249464E0,0E0,0E0,0E0,0E0,0E0,0E0,0E0,0E0,0E0,0E0,0E0,0E0],"parents":[2147483647,0,0,1,1,2,2,3,3,4,4,7,7,8,8,9,9,10,10,11,11,12,12,14,14,16,16,17,17,18,18],"right_children":[2,4,6,8,10,-1,-1,12,14,16,18,20,22,-1,24,-1,26,28,30,-1,-1,-1,-1,-1,-1,-1,-1,-1,-1,-1,-1],"split_conditions":[1E0,1E0,2E0,1E0,1.9E1,1.2196856E-1,-1.0408399E-2,1E0,2E0,1E0,5E0,1E0,3E0,-1.1122605E-2,1E0,1.8852236E-2,5E0,7E0,1E0,-4.4932995E-2,1.04401365E-1,1.401683E-1,3.536507E-2,9.540927E-2,1.2027125E-2,1.1676657E-1,3.9632093E-2,3.265382E-2,-3.6312785E-2,8.638072E-2,-1.3106033E-2],"split_indices":[131,187,130,170,6,0,0,163,13,8,38,162,21,0,219,0,39,37,31,0,0,0,0,0,0,0,0,0,0,0,0],"split_type":[0,0,0,0,0,0,0,0,0,0,0,0,0,0,0,0,0,0,0,0,0,0,0,0,0,0,0,0,0,0,0],"sum_hessian":[3.4278036E2,2.933628E2,4.9417557E1,2.589891E2,3.4373703E1,4.8269993E1,1.1475646E0,2.4414847E2,1.4840628E1,1.3180517E1,2.1193186E1,2.4056389E2,3.5845778E0,1.1576567E0,1.3682971E1,1.4392991E0,1.1741219E1,9.784489E0,1.1408697E1,2.3619847E2,4.365421E0,2.461043E0,1.1235349E0,1.2630465E1,1.0525061E0,1.0374548E1,1.36667E0,6.4415426E0,3.3429458E0,1.0179643E1,1.2290541E0],"tree_param":{"num_deleted":"0","num_feature":"283","num_nodes":"31","size_leaf_vector":"1"}},{"base_weights":[-2.8733177E-2,-4.295914E-1,1.1054125E-1,-7.361443E-1,1.9916601E0,-8.613803E-1,1.4134511E0,2.1297023E0,8.998681E-1,-9.263132E-1,9.9260055E-2,-3.297306E-1,1.9405563E0,2.1952512E0,2.2411358E-2,1.07715605E-2,9.588849E-2,-4.9159955E-2,1.0272445E-1,-3.797233E-2,7.2965734E-3,1.0473762E-1,1.1689479E-2,1.1248642E-1,2.6601208E-2,3.7155803E-2,-2.58309E-2],"categories":[],"categories_nodes":[],"categories_segments":[],"categories_sizes":[],"default_left":[0,0,0,0,0,0,0,0,0,0,0,0,0,0,0,0,0,0,0,0,0,0,0,0,0,0,0],"id":7,"left_children":[1,3,-1,5,7,9,11,13,15,17,-1,19,21,23,-1,25,-1,-1,-1,-1,-1,-1,-1,-1,-1,-1,-1],"loss_changes":[3.041599E2,2.1471835E2,0E0,7.0067245E1,2.990448E0,4.6623444E1,1.3924866E1,2.1210785E0,4.853866E0,4.230365E1,0E0,9.7168916E-1,2.4701576E0,1.2366333E0,0E0,1.8827211E0,0E0,0E0,0E0,0E0,0E0,0E0,0E0,0E0,0E0,0E0,0E0],"parents":[2147483647,0,0,1,1,3,3,4,4,5,5,6,6,7,7,8,8,9,9,11,11,12,12,13,13,15,15],"right_children":[2,4,-1,6,8,10,12,14,16,18,-1,20,22,24,-1,26,-1,-1,-1,-1,-1,-1,-1,-1,-1,-1,-1],"split_conditions":[1E0,1E0,1.1054125E-1,1E0,9E0,1E0,1E0,3E0,3E0,1E0,9.9260055E-2,2E0,1E0,8E0,2.2411358E-2,1E0,9.588849E-2,-4.9159955E-2,1.0272445E-1,-3.797233E-2,7.2965734E-3,1.0473762E-1,1.1689479E-2,1.1248642E-1,2.6601208E-2,3.7155803E-2,-2.58309E-2],"split_indices":[131,156,0,170,43,162,18,22,69,163,0,38,219,68,0,26,0,0,0,0,0,0,0,0,0,0,0],"split_type":[0,0,0,0,0,0,0,0,0,0,0,0,0,0,0,0,0,0,0,0,0,0,0,0,0,0,0],"sum_hessian":[3.3674634E2,2.8630826E2,5.0438095E1,2.5475044E2,3.1557808E1,2.4129199E2,1.3458449E1,2.717167E1,4.386138E0,2.365702E2,4.721782E0,3.2116616E0,1.0246787E1,2.5858097E1,1.3135726E0,2.8806162E0,1.5055215E0,2.3279764E2,3.7725706E0,1.3738803E0,1.8377813E0,9.18927E0,1.0575176E0,2.4696558E1,1.1615392E0,1.0347267E0,1.8458894E0],"tree_param":{"num_deleted":"0","num_feature":"283","num_nodes":"27","size_leaf_vector":"1"}},{"base_weights":[1.0576668E-2,-3.7795964E-1,1.0376014E-1,-5.030367E-1,1.62274E0,-5.521873E-1,1.00153066E-1,1.7382897E-2,8.411997E-2,-5.991049E-1,1.7255052E0,-3.2125104E-2,4.9441844E-2,1.2674266E-1,-1.9534836E-2],"categories":[],"categories_nodes":[],"categories_segments":[],"categories_sizes":[],"default_left":[0,0,0,0,0,0,0,0,0,0,0,0,0,0,0],"id":8,"left_children":[1,3,-1,5,7,9,-1,-1,-1,11,13,-1,-1,-1,-1],"loss_changes":[2.6898282E2,7.14418E1,0E0,3.3918625E1,6.9631577E-1,2.9037048E1,0E0,0E0,0E0,1.8380219E1,1.04902725E1,0E0,0E0,0E0,0E0],"parents":[2147483647,0,0,1,1,3,3,4,4,5,5,9,9,10,10],"right_children":[2,4,-1,6,8,10,-1,-1,-1,12,14,-1,-1,-1,-1],"split_conditions":[1E0,1E0,1.0376014E-1,1E0,2E0,1E0,1.00153066E-1,1.7382897E-2,8.411997E-2,1E0,3E0,-3.2125104E-2,4.9441844E-2,1.2674266E-1,-1.9534836E-2],"split_indices":[131,170,0,162,7,163,0,0,0,210,143,0,0,0,0],"split_type":[0,0,0,0,0,0,0,0,0,0,0,0,0,0,0],"sum_hessian":[3.3333615E2,2.812293E2,5.210684E1,2.6538678E2,1.5842522E1,2.610467E2,4.340097E0,1.0132833E0,1.4829238E1,2.565001E2,4.5466056E0,2.5025618E2,6.2439127E0,3.1456938E0,1.4009117E0],"tree_param":{"num_deleted":"0","num_feature":"283","num_nodes":"15","size_leaf_vector":"1"}},{"base_weights":[1.0877216E-2,-3.6720598E-1,1.9497278E0,-5.8832246E-1,1.2138988E0,9.972992E-2,1.4778991E-2,-7.334808E-1,1.3249608E0,1.7139949E0,8.6590856E-1,-7.847092E-1,1.8682041E0,-3.216439E-2,1.4951713E0,9.260359E-2,2.5509125E-2,4.6275905E-1,1.7316737E0,-4.1985493E-2,1.0680749E-2,1.1125698E-1,1.46459015E-2,7.8901224E-2,9.014012E-3,3.8096722E-2,-3.5340108E-2,1.2988523E-2,9.792292E-2],"categories":[],"categories_nodes":[],"categories_segments":[],"categories_sizes":[],"default_left":[0,0,0,0,0,0,0,0,0,0,0,0,0,0,0,0,0,0,0,0,0,0,0,0,0,0,0,0,0],"id":9,"left_children":[1,3,5,7,9,-1,-1,11,13,15,17,19,21,-1,23,-1,-1,25,27,-1,-1,-1,-1,-1,-1,-1,-1,-1,-1],"loss_changes":[2.4057051E2,9.6734085E1,3.3852234E0,6.807852E1,4.4369087E0,0E0,0E0,3.1484848E1,6.7895947E0,1.2059212E0,6.9066525E0,1.2346313E1,1.9600182E0,0E0,1.4925613E0,0E0,0E0,6.288248E0,1.7115974E0,0E0,0E0,0E0,0E0,0E0,0E0,0E0,0E0,0E0,0E0],"parents":[2147483647,0,0,1,1,2,2,3,3,4,4,7,7,8,8,9,9,10,10,11,11,12,12,14,14,17,17,18,18],"right_children":[2,4,6,8,10,-1,-1,12,14,16,18,20,22,-1,24,-1,-1,26,28,-1,-1,-1,-1,-1,-1,-1,-1,-1,-1],"split_conditions":[1E0,1E0,1E0,1E0,7.5E1,9.972992E-2,1.4778991E-2,1E0,7E0,8E0,2.37E2,1E0,6E0,-3.216439E-2,1E0,9.260359E-2,2.5509125E-2,4E0,2E1,-4.1985493E-2,1.0680749E-2,1.1125698E-1,1.46459015E-2,7.8901224E-2,9.014012E-3,3.8096722E-2,-3.5340108E-2,1.2988523E-2,9.792292E-2],"split_indices":[132,187,130,170,0,0,0,163,0,7,0,218,3,0,219,0,0,9,7,0,0,0,0,0,0,0,0,0,0],"split_type":[0,0,0,0,0,0,0,0,0,0,0,0,0,0,0,0,0,0,0,0,0,0,0,0,0,0,0,0,0],"sum_hessian":[3.262022E2,2.7365002E2,5.255219E1,2.4062648E2,3.3023552E1,5.096392E1,1.5882668E0,2.24231E2,1.639548E1,1.1939666E1,2.1083885E1,2.2058594E2,3.6450598E0,1.0837731E0,1.5311707E1,1.022801E1,1.7116553E0,1.5432257E1,5.651629E0,2.0921837E2,1.1367578E1,2.6353908E0,1.0096691E0,1.4215829E1,1.0958775E0,1.2566307E1,2.8659496E0,1.0409553E0,4.610674E0],"tree_param":{"num_deleted":"0","num_feature":"283","num_nodes":"29","size_leaf_vector":"1"}},{"base_weights":[-1.9601967E-2,-3.8593346E-1,1.866852E0,-6.8832546E-1,1.8252903E0,9.4804086E-2,2.2652166E-2,-8.36847E-1,1.3013046E0,1.9611809E0,8.531632E-1,-8.7961704E-1,1.7219558E-1,-3.1662405E-2,1.4700888E0,2.037516E0,2.3084432E-2,-2.6932819E-2,8.2843065E-2,-4.7380466E-2,8.835709E-2,7.7948146E-2,7.5781317E-3,1.0454663E-1,2.4316875E-2],"categories":[],"categories_nodes":[],"categories_segments":[],"categories_sizes":[],"default_left":[0,0,0,0,0,0,0,0,0,0,0,0,0,0,0,0,0,0,0,0,0,0,0,0,0],"id":10,"left_children":[1,3,5,7,9,-1,-1,11,13,15,17,19,-1,-1,21,23,-1,-1,-1,-1,-1,-1,-1,-1,-1],"loss_changes":[2.2352687E2,1.8233517E2,1.3146667E0,7.170154E1,2.6667328E0,0E0,0E0,4.3851974E1,6.478533E0,2.270424E0,7.3794174E0,4.1545975E1,0E0,0E0,1.6301651E0,1.1707077E0,0E0,0E0,0E0,0E0,0E0,0E0,0E0,0E0,0E0],"parents":[2147483647,0,0,1,1,2,2,3,3,4,4,7,7,8,8,9,9,10,10,11,11,14,14,15,15],"right_children":[2,4,6,8,10,-1,-1,12,14,16,18,20,-1,-1,22,24,-1,-1,-1,-1,-1,-1,-1,-1,-1],"split_conditions":[1E0,1E0,1E0,1E0,5E0,9.4804086E-2,2.2652166E-2,1E0,7E0,1E0,4.1E1,1E0,1.7219558E-1,-3.1662405E-2,1.5E1,1.2E1,2.3084432E-2,-2.6932819E-2,8.2843065E-2,-4.7380466E-2,8.835709E-2,7.7948146E-2,7.5781317E-3,1.0454663E-1,2.4316875E-2],"split_indices":[132,156,130,170,63,0,0,171,0,27,61,162,0,0,81,81,0,0,0,0,0,0,0,0,0],"split_type":[0,0,0,0,0,0,0,0,0,0,0,0,0,0,0,0,0,0,0,0,0,0,0,0,0],"sum_hessian":[3.2140903E2,2.698099E2,5.159911E1,2.3795721E2,3.1852707E1,5.021973E1,1.3793781E0,2.2196724E2,1.5989973E1,2.7053562E1,4.799144E0,2.205581E2,1.409128E0,1.062308E0,1.4927665E1,2.540163E1,1.6519327E0,1.877509E0,2.9216344E0,2.1566002E2,4.8980904E0,1.381418E1,1.1134846E0,2.4219635E1,1.1819953E0],"tree_param":{"num_deleted":"0","num_feature":"283","num_nodes":"25","size_leaf_vector":"1"}},{"base_weights":[1.7399458E-2,-3.3644652E-1,8.957974E-2,-5.5685115E-1,1.100912E0,-7.010698E-1,1.3432708E0,1.6002061E0,6.953457E-1,-7.616106E-1,1.7958226E0,6.633106E-1,1.8197291E0,1.7605692E0,-1.3203074E-2,3.3911216E-1,1.5230696E0,-3.965203E-2,1.4028142E-1,1.1139369E-1,8.010366E-3,5.2069392E-2,-1.1120451E-2,9.671202E-2,2.754969E-2,9.3275E-2,1.848496E-2,-1.5728261E-2,4.2259056E-2,2.4036506E-2,8.4964536E-2],"categories":[],"categories_nodes":[],"categories_segments":[],"categories_sizes":[],"default_left":[0,0,0,0,0,0,0,0,0,0,0,0,0,0,0,0,0,0,0,0,0,0,0,0,0,0,0,0,0,0,0],"id":11,"left_children":[1,3,-1,5,7,9,11,13,15,17,19,21,23,25,-1,27,29,-1,-1,-1,-1,-1,-1,-1,-1,-1,-1,-1,-1,-1,-1],"loss_changes":[1.9763948E2,8.377672E1,0E0,6.34962E1,6.0228043E0,3.3539513E1,4.1211967E0,4.9568634E0,5.7382135E0,2.560067E1,3.4138336E0,3.0277054E0,2.55867E-1,1.3485451E0,0E0,5.597213E0,3.0282593E-1,0E0,0E0,0E0,0E0,0E0,0E0,0E0,0E0,0E0,0E0,0E0,0E0,0E0,0E0],"parents":[2147483647,0,0,1,1,3,3,4,4,5,5,6,6,7,7,8,8,9,9,10,10,11,11,12,12,13,13,15,15,16,16],"right_children":[2,4,-1,6,8,10,12,14,16,18,20,22,24,26,-1,28,30,-1,-1,-1,-1,-1,-1,-1,-1,-1,-1,-1,-1,-1,-1],"split_conditions":[1E0,1E0,8.957974E-2,1E0,7.7E1,1E0,2E0,1E0,7E0,1E0,6E0,5E0,7E0,1E0,-1.3203074E-2,1E0,5E0,-3.965203E-2,1.4028142E-1,1.1139369E-1,8.010366E-3,5.2069392E-2,-1.1120451E-2,9.671202E-2,2.754969E-2,9.3275E-2,1.848496E-2,-1.5728261E-2,4.2259056E-2,2.4036506E-2,8.4964536E-2],"split_indices":[131,187,0,170,0,163,20,25,34,171,3,44,67,220,0,149,37,0,0,0,0,0,0,0,0,0,0,0,0,0,0],"split_type":[0,0,0,0,0,0,0,0,0,0,0,0,0,0,0,0,0,0,0,0,0,0,0,0,0,0,0,0,0,0,0],"sum_hessian":[3.1285672E2,2.615112E2,5.1345497E1,2.2727364E2,3.4237568E1,2.1182707E2,1.5446561E1,1.4025325E1,2.0212242E1,2.0749112E2,4.3359523E0,7.349771E0,8.096789E0,1.2965652E1,1.0596724E0,1.5116247E1,5.0959964E0,2.0644984E2,1.0412894E0,3.1434915E0,1.192461E0,5.0278397E0,2.3219314E0,6.9453826E0,1.1514072E0,1.17388E1,1.2268524E0,6.7612777E0,8.354969E0,1.2760737E0,3.8199227E0],"tree_param":{"num_deleted":"0","num_feature":"283","num_nodes":"31","size_leaf_vector":"1"}},{"base_weights":[1.5412917E-2,-3.4030393E-1,1.7068889E0,-6.39766E-1,1.7212341E0,8.78006E-2,-1.3818934E-2,-7.9585093E-1,1.1895312E0,1.7735951E0,1.5678955E-2,-8.447028E-1,1.5012065E-1,4.1364753E-1,1.5846977E0,1.818039E0,2.0203356E-2,-4.5402158E-2,8.331726E-2,4.8179366E-2,-3.5498448E-2,8.6427934E-2,6.4235083E-3,9.484533E-2,4.990621E-2],"categories":[],"categories_nodes":[],"categories_segments":[],"categories_sizes":[],"default_left":[0,0,0,0,0,0,0,0,0,0,0,0,0,0,0,0,0,0,0,0,0,0,0,0,0],"id":12,"left_children":[1,3,5,7,9,-1,-1,11,13,15,-1,17,-1,19,21,23,-1,-1,-1,-1,-1,-1,-1,-1,-1],"loss_changes":[1.8755988E2,1.6012816E2,5.7621E0,6.5376045E1,1.8719788E0,0E0,0E0,4.1225708E1,4.906559E0,1.185585E0,0E0,3.4379883E1,0E0,5.3029647E0,2.221918E0,6.404877E-2,0E0,0E0,0E0,0E0,0E0,0E0,0E0,0E0,0E0],"parents":[2147483647,0,0,1,1,2,2,3,3,4,4,7,7,8,8,9,9,11,11,13,13,14,14,15,15],"right_children":[2,4,6,8,10,-1,-1,12,14,16,-1,18,-1,20,22,24,-1,-1,-1,-1,-1,-1,-1,-1,-1],"split_conditions":[1E0,1E0,2E0,1E0,2E0,8.78006E-2,-1.3818934E-2,1E0,1.5E1,1E0,1.5678955E-2,1E0,1.5012065E-1,3E0,3.4E1,1E0,2.0203356E-2,-4.5402158E-2,8.331726E-2,4.8179366E-2,-3.5498448E-2,8.6427934E-2,6.4235083E-3,9.484533E-2,4.990621E-2],"split_indices":[131,156,130,170,31,0,0,171,32,273,0,162,0,38,3,210,0,0,0,0,0,0,0,0,0],"split_type":[0,0,0,0,0,0,0,0,0,0,0,0,0,0,0,0,0,0,0,0,0,0,0,0,0],"sum_hessian":[3.0975818E2,2.5659512E2,5.3163055E1,2.2465157E2,3.1943552E1,5.1989918E1,1.1731374E0,2.0751064E2,1.7140926E1,3.054731E1,1.3962413E0,2.0564334E2,1.8672969E0,6.4748154E0,1.066611E1,2.9269949E1,1.2773613E0,2.0120636E2,4.4369836E0,4.442778E0,2.0320375E0,9.5369425E0,1.1291674E0,2.5503248E1,3.766701E0],"tree_param":{"num_deleted":"0","num_feature":"283","num_nodes":"25","size_leaf_vector":"1"}},{"base_weights":[-2.2724263E-2,-3.3783302E-1,1.6186203E0,-6.524291E-1,1.65062E0,8.411543E-2,-1.7908098E-2,-8.1140906E-1,1.2320863E0,1.7542673E0,8.531879E-1,-8.766591E-1,8.072618E-2,1.4314646E0,4.4542208E-1,1.8169016E0,1.3760013E-2,-2.0046053E-2,1.3528157E0,-4.5911E-2,1.2796505E-1,8.037381E-2,4.908215E-3,-4.9201734E-2,7.028274E-2,9.328799E-2,1.955898E-2,8.5021175E-2,7.01061E-3],"categories":[],"categories_nodes":[],"categories_segments":[],"categories_sizes":[],"default_left":[0,0,0,0,0,0,0,0,0,0,0,0,0,0,0,0,0,0,0,0,0,0,0,0,0,0,0,0,0],"id":13,"left_children":[1,3,5,7,9,-1,-1,11,13,15,17,19,-1,21,23,25,-1,-1,27,-1,-1,-1,-1,-1,-1,-1,-1,-1,-1],"loss_changes":[1.5776619E2,1.6112532E2,6.7881775E0,6.7396E1,1.4152756E0,0E0,0E0,3.3861755E1,2.1288662E0,2.3007507E0,4.301558E0,3.0947037E1,0E0,3.038536E0,8.271273E0,1.2781143E0,0E0,0E0,1.6663256E0,0E0,0E0,0E0,0E0,0E0,0E0,0E0,0E0,0E0,0E0],"parents":[2147483647,0,0,1,1,2,2,3,3,4,4,7,7,8,8,9,9,10,10,11,11,13,13,14,14,15,15,18,18],"right_children":[2,4,6,8,10,-1,-1,12,14,16,18,20,-1,22,24,26,-1,-1,28,-1,-1,-1,-1,-1,-1,-1,-1,-1,-1],"split_conditions":[1E0,1E0,2E0,1E0,5E0,8.411543E-2,-1.7908098E-2,1E0,5E0,4E0,1.3E1,1E0,8.072618E-2,2.9E1,6E0,7E0,1.3760013E-2,-2.0046053E-2,1.1E1,-4.5911E-2,1.2796505E-1,8.037381E-2,4.908215E-3,-4.9201734E-2,7.028274E-2,9.328799E-2,1.955898E-2,8.5021175E-2,7.01061E-3],"split_indices":[131,156,130,170,63,0,0,162,44,22,66,171,0,10,43,68,0,0,102,0,0,0,0,0,0,0,0,0,0],"split_type":[0,0,0,0,0,0,0,0,0,0,0,0,0,0,0,0,0,0,0,0,0,0,0,0,0,0,0,0,0],"sum_hessian":[3.0298053E2,2.5484839E2,4.8132153E1,2.2061626E2,3.4232132E1,4.677414E1,1.35801E0,2.0397787E2,1.6638386E1,2.923268E1,4.9994545E0,1.9925711E2,4.720764E0,1.2620169E1,4.0182157E0,2.782592E1,1.4067577E0,1.4805949E0,3.5188596E0,1.9759973E2,1.6573771E0,1.09667845E1,1.6533842E0,1.604652E0,2.4135637E0,2.6605532E1,1.2203887E0,2.4222116E0,1.096648E0],"tree_param":{"num_deleted":"0","num_feature":"283","num_nodes":"29","size_leaf_vector":"1"}},{"base_weights":[4.475007E-3,-3.2239863E-1,1.5779289E0,-6.276492E-1,1.5231774E0,8.128487E-2,-1.3073884E-2,-7.823235E-1,1.2146939E0,1.5714775E0,2.8968342E-3,-8.4791344E-1,7.696951E-2,-3.3585034E-2,1.3830171E0,1.6618042E0,7.129058E-1,-4.4530034E-2,1.2001457E-1,7.373858E-2,5.419673E-3,8.634047E-2,2.9107897E-2,-1.840211E-2,5.81423E-2],"categories":[],"categories_nodes":[],"categories_segments":[],"categories_sizes":[],"default_left":[0,0,0,0,0,0,0,0,0,0,0,0,0,0,0,0,0,0,0,0,0,0,0,0,0],"id":14,"left_children":[1,3,5,7,9,-1,-1,11,13,15,-1,17,-1,-1,19,21,23,-1,-1,-1,-1,-1,-1,-1,-1],"loss_changes":[1.528879E2,1.3962305E2,4.9177856E0,6.1338722E1,2.4018555E0,0E0,0E0,3.1169334E1,6.2650433E0,1.4569016E0,0E0,2.867221E1,0E0,0E0,1.682785E0,1.1050262E0,2.85674E0,0E0,0E0,0E0,0E0,0E0,0E0,0E0,0E0],"parents":[2147483647,0,0,1,1,2,2,3,3,4,4,7,7,8,8,9,9,11,11,14,14,15,15,16,16],"right_children":[2,4,6,8,10,-1,-1,12,14,16,-1,18,-1,-1,20,22,24,-1,-1,-1,-1,-1,-1,-1,-1],"split_conditions":[1E0,1E0,2E0,1E0,1E0,8.128487E-2,-1.3073884E-2,1E0,2E0,9E0,2.8968342E-3,1E0,7.696951E-2,-3.3585034E-2,1.5E1,4E0,5E0,-4.4530034E-2,1.2001457E-1,7.373858E-2,5.419673E-3,8.634047E-2,2.9107897E-2,-1.840211E-2,5.81423E-2],"split_indices":[131,156,130,170,118,0,0,162,7,43,0,171,0,0,81,52,37,0,0,0,0,0,0,0,0],"split_type":[0,0,0,0,0,0,0,0,0,0,0,0,0,0,0,0,0,0,0,0,0,0,0,0,0],"sum_hessian":[2.9527274E2,2.4514148E2,5.0131264E1,2.1091666E2,3.422481E1,4.897557E1,1.1556907E0,1.951114E2,1.5805255E1,3.306244E1,1.1623733E0,1.9036816E2,4.7432404E0,1.0497857E0,1.4755469E1,2.90687E1,3.9937382E0,1.8861523E2,1.7529238E0,1.36181345E1,1.1373348E0,2.6852497E1,2.2162035E0,1.2272881E0,2.7664502E0],"tree_param":{"num_deleted":"0","num_feature":"283","num_nodes":"25","size_leaf_vector":"1"}},{"base_weights":[2.1614749E-2,-2.9567212E-1,1.5210176E0,-6.1038524E-1,1.4919037E0,7.887028E-2,-1.7168043E-2,-7.5222427E-1,9.447456E-1,1.5487053E0,1.456131E-2,-8.023766E-1,1.1902467E-1,3.2427308E-1,1.2342062E0,1.6608181E0,7.0736986E-1,-4.3739587E-2,-3.0283392E-3,4.0134817E-2,-3.3569004E-2,6.706166E-2,5.9765535E-3,8.683228E-2,1.8699104E-2,-3.594916E-2,5.96822E-2],"categories":[],"categories_nodes":[],"categories_segments":[],"categories_sizes":[],"default_left":[0,0,0,0,0,0,0,0,0,0,0,0,0,0,0,0,0,0,0,0,0,0,0,0,0,0,0],"id":15,"left_children":[1,3,5,7,9,-1,-1,11,13,15,-1,17,-1,19,21,23,25,-1,-1,-1,-1,-1,-1,-1,-1,-1,-1],"loss_changes":[1.4074422E2,1.3830801E2,5.9732666E0,4.6674408E1,2.062271E0,0E0,0E0,3.20001E1,2.8075352E0,2.1223373E0,0E0,1.01130905E1,0E0,3.891397E0,1.2500954E0,2.2879257E0,4.917286E0,0E0,0E0,0E0,0E0,0E0,0E0,0E0,0E0,0E0,0E0],"parents":[2147483647,0,0,1,1,2,2,3,3,4,4,7,7,8,8,9,9,11,11,13,13,14,14,15,15,16,16],"right_children":[2,4,6,8,10,-1,-1,12,14,16,-1,18,-1,20,22,24,26,-1,-1,-1,-1,-1,-1,-1,-1,-1,-1],"split_conditions":[1E0,1E0,2E0,1E0,1E0,7.887028E-2,-1.7168043E-2,1E0,1.5E1,9E0,1.456131E-2,1E0,1.1902467E-1,3E0,3.4E1,2E0,5E0,-4.3739587E-2,-3.0283392E-3,4.0134817E-2,-3.3569004E-2,6.706166E-2,5.9765535E-3,8.683228E-2,1.8699104E-2,-3.594916E-2,5.96822E-2],"split_indices":[131,156,130,170,60,0,0,171,32,43,0,280,0,38,3,11,37,0,0,0,0,0,0,0,0,0,0],"split_type":[0,0,0,0,0,0,0,0,0,0,0,0,0,0,0,0,0,0,0,0,0,0,0,0,0,0,0],"sum_hessian":[2.9389688E2,2.4323006E2,5.0666817E1,2.0737842E2,3.5851635E1,4.9328796E1,1.3380206E0,1.905181E2,1.6860317E1,3.3955414E1,1.8962231E0,1.8824826E2,2.2698379E0,6.03795E0,1.0822367E1,2.9103214E1,4.852199E0,1.7134262E2,1.6905643E1,4.2091856E0,1.8287648E0,9.688829E0,1.1335368E0,2.7153627E1,1.9495866E0,1.1119729E0,3.740226E0],"tree_param":{"num_deleted":"0","num_feature":"283","num_nodes":"27","size_leaf_vector":"1"}},{"base_weights":[-7.4695866E-3,-3.3429E-1,1.4855801E0,-6.0124046E-1,1.3798472E0,7.651756E-2,-1.2365478E-2,-7.614577E-1,9.2012805E-1,1.5304416E0,5.30339E-1,-8.35135E-1,1.9207208E0,-3.4136754E-2,1.0583994E0,1.6107917E0,1.1875805E-2,1.1267866E0,-4.117056E-2,-4.4452425E-2,1.1114521E-1,1.16724506E-1,1.1371038E-2,6.333991E-2,1.7120799E-2,8.391302E-2,3.90059E-2,8.909244E-4,7.682692E-2],"categories":[],"categories_nodes":[],"categories_segments":[],"categories_sizes":[],"default_left":[0,0,0,0,0,0,0,0,0,0,0,0,0,0,0,0,0,0,0,0,0,0,0,0,0,0,0,0,0],"id":16,"left_children":[1,3,5,7,9,-1,-1,11,13,15,17,19,21,-1,23,25,-1,27,-1,-1,-1,-1,-1,-1,-1,-1,-1,-1,-1],"loss_changes":[1.3787746E2,1.06897766E2,4.3153687E0,4.9757507E1,3.223053E0,0E0,0E0,3.7694824E1,5.07283E0,2.3453522E0,5.997937E0,3.1396523E1,3.1023407E0,0E0,2.3208923E0,6.661606E-2,0E0,2.1451292E0,0E0,0E0,0E0,0E0,0E0,0E0,0E0,0E0,0E0,0E0,0E0],"parents":[2147483647,0,0,1,1,2,2,3,3,4,4,7,7,8,8,9,9,10,10,11,11,12,12,14,14,15,15,17,17],"right_children":[2,4,6,8,10,-1,-1,12,14,16,18,20,22,-1,24,26,-1,28,-1,-1,-1,-1,-1,-1,-1,-1,-1,-1,-1],"split_conditions":[1E0,1E0,2E0,1E0,5E0,7.651756E-2,-1.2365478E-2,1E0,1E0,1E0,1E0,1E0,2E0,-3.4136754E-2,5E0,1E0,1.1875805E-2,1.5E1,-4.117056E-2,-4.4452425E-2,1.1114521E-1,1.16724506E-1,1.1371038E-2,6.333991E-2,1.7120799E-2,8.391302E-2,3.90059E-2,8.909244E-4,7.682692E-2],"split_indices":[131,156,130,170,63,0,0,163,7,27,241,171,143,0,44,210,0,66,0,0,0,0,0,0,0,0,0,0,0],"split_type":[0,0,0,0,0,0,0,0,0,0,0,0,0,0,0,0,0,0,0,0,0,0,0,0,0,0,0,0,0],"sum_hessian":[2.805417E2,2.3079749E2,4.97442E1,2.002594E2,3.0538074E1,4.8605312E1,1.138891E0,1.816311E2,1.8628307E1,2.5258818E1,5.279256E0,1.7744545E2,4.1856494E0,1.1666526E0,1.7461655E1,2.3549463E1,1.7093548E0,3.7810307E0,1.4982253E0,1.7506825E2,2.3771958E0,3.0594013E0,1.1262484E0,1.2929113E1,4.532541E0,2.083671E1,2.7127535E0,1.3016586E0,2.479372E0],"tree_param":{"num_deleted":"0","num_feature":"283","num_nodes":"29","size_leaf_vector":"1"}},{"base_weights":[1.999186E-2,-2.7963525E-1,1.4214065E0,-5.592403E-1,1.3409408E0,7.1758844E-2,2.1606712E-2,-6.9935745E-1,8.471981E-1,1.3979625E0,-5.170196E-3,-7.7812946E-1,7.923781E-2,1.4710253E-1,1.1422977E0,1.4503856E0,3.2530198E-4,-4.2469837E-2,7.836243E-2,-3.087223E-2,3.0030007E-2,6.230268E-2,3.2649473E-3,7.438406E-2,1.34353265E-2],"categories":[],"categories_nodes":[],"categories_segments":[],"categories_sizes":[],"default_left":[0,0,0,0,0,0,0,0,0,0,0,0,0,0,0,0,0,0,0,0,0,0,0,0,0],"id":17,"left_children":[1,3,5,7,9,-1,-1,11,13,15,-1,17,-1,19,21,23,-1,-1,-1,-1,-1,-1,-1,-1,-1],"loss_changes":[1.15732E2,1.0366485E2,4.1130066E-2,3.890404E1,2.921276E0,0E0,0E0,3.314161E1,3.5642862E0,2.3615036E0,0E0,3.0097916E1,0E0,2.6261518E0,1.3222504E0,9.805069E-1,0E0,0E0,0E0,0E0,0E0,0E0,0E0,0E0,0E0],"parents":[2147483647,0,0,1,1,2,2,3,3,4,4,7,7,8,8,9,9,11,11,13,13,14,14,15,15],"right_children":[2,4,6,8,10,-1,-1,12,14,16,-1,18,-1,20,22,24,-1,-1,-1,-1,-1,-1,-1,-1,-1],"split_conditions":[1E0,1E0,1E0,1E0,4E0,7.1758844E-2,2.1606712E-2,1E0,3.3E1,1E0,-5.170196E-3,1E0,7.923781E-2,2E0,1.5E1,1.2E1,3.2530198E-4,-4.2469837E-2,7.836243E-2,-3.087223E-2,3.0030007E-2,6.230268E-2,3.2649473E-3,7.438406E-2,1.34353265E-2],"split_indices":[131,156,277,170,22,0,0,162,0,273,0,163,0,38,81,142,0,0,0,0,0,0,0,0,0],"split_type":[0,0,0,0,0,0,0,0,0,0,0,0,0,0,0,0,0,0,0,0,0,0,0,0,0],"sum_hessian":[2.7367023E2,2.2612451E2,4.7545708E1,1.9340962E2,3.2714893E1,4.644842E1,1.0972866E0,1.7634401E2,1.7065617E1,3.150328E1,1.2116115E0,1.7110254E2,5.241464E0,5.504709E0,1.1560907E1,3.0318672E1,1.1846079E0,1.6667574E2,4.426809E0,1.9148929E0,3.5898159E0,1.0401847E1,1.1590602E0,2.914001E1,1.1786613E0],"tree_param":{"num_deleted":"0","num_feature":"283","num_nodes":"25","size_leaf_vector":"1"}},{"base_weights":[1.8654166E-2,-2.8625956E-1,1.3985021E0,-3.8695884E-1,8.4560126E-1,7.17709E-2,6.6845477E-1,-4.5147544E-1,1.2186515E0,-1.3156061E-1,1.1440849E0,-9.20077E-3,5.856983E-2,-5.063928E-1,7.37597E-2,1.6813695E0,-2.9039465E-2,-5.179589E-1,2.523908E-2,1.2650399E0,-3.9924732E-3,-1.7641151E-2,-4.0290006E-2,7.2014006E-3,9.958031E-2,-2.9799128E-2,2.9736442E-2,1.1446341E-3,-4.2877913E-2,7.0354626E-2,1.4028864E-2],"categories":[],"categories_nodes":[],"categories_segments":[],"categories_sizes":[],"default_left":[0,0,0,0,0,0,0,0,0,0,0,0,0,0,0,0,0,0,0,0,0,0,0,0,0,0,0,0,0,0,0],"id":18,"left_children":[1,3,5,7,9,-1,11,13,15,17,19,-1,-1,21,-1,23,25,27,-1,29,-1,-1,-1,-1,-1,-1,-1,-1,-1,-1,-1],"loss_changes":[1.14502266E2,2.5737928E1,3.6785126E-1,2.1828993E1,5.554633E0,0E0,2.0343633E0,2.1719238E1,4.78611E0,1.5479715E0,2.2174225E0,0E0,0E0,8.611073E0,0E0,2.5760555E0,1.4871129E0,7.082275E-1,0E0,1.4329491E0,0E0,0E0,0E0,0E0,0E0,0E0,0E0,0E0,0E0,0E0,0E0],"parents":[2147483647,0,0,1,1,2,2,3,3,4,4,6,6,7,7,8,8,9,9,10,10,13,13,15,15,16,16,17,17,19,19],"right_children":[2,4,6,8,10,-1,12,14,16,18,20,-1,-1,22,-1,24,26,28,-1,30,-1,-1,-1,-1,-1,-1,-1,-1,-1,-1,-1],"split_conditions":[1E0,1E0,1E0,1E0,6E0,7.17709E-2,3.9E1,1E0,8E0,1E0,1E0,-9.20077E-3,5.856983E-2,2E0,7.37597E-2,1.1E1,9E0,1.1E1,2.523908E-2,4.3E1,-3.9924732E-3,-1.7641151E-2,-4.0290006E-2,7.2014006E-3,9.958031E-2,-2.9799128E-2,2.9736442E-2,1.1446341E-3,-4.2877913E-2,7.0354626E-2,1.4028864E-2],"split_indices":[131,170,138,185,12,0,61,162,10,40,219,0,0,69,0,1,70,0,0,10,0,0,0,0,0,0,0,0,0,0,0],"split_type":[0,0,0,0,0,0,0,0,0,0,0,0,0,0,0,0,0,0,0,0,0,0,0,0,0,0,0,0,0,0,0],"sum_hessian":[2.7019696E2,2.2194492E2,4.825203E1,2.0441653E2,1.7528385E1,4.5009842E1,3.2421885E0,1.9721101E2,7.2055163E0,4.2322574E0,1.3296128E1,1.4383513E0,1.8038372E0,1.9246228E2,4.748732E0,5.002651E0,2.2028654E0,2.749033E0,1.4832244E0,1.2069754E1,1.2263747E0,1.2865298E2,6.3809303E1,1.0858917E0,3.9167595E0,1.1773325E0,1.0255328E0,1.4200413E0,1.3289917E0,1.0172604E1,1.8971502E0],"tree_param":{"num_deleted":"0","num_feature":"283","num_nodes":"31","size_leaf_vector":"1"}},{"base_weights":[3.6838226E-2,-2.423248E-1,6.8964735E-2,-5.3342164E-1,1.2691975E0,-6.9141036E-1,1.032251E0,1.3748491E0,5.2613413E-1,-7.655271E-1,1.5948465E0,4.3035454E-1,1.3783479E0,1.42805E0,8.803905E-3,-6.3536704E-1,6.543591E-2,-4.0315703E-2,1.4366797E-1,1.012431E-1,1.5186165E-2,4.014283E-2,-3.0775791E-2,7.740108E-2,8.449874E-3,7.437982E-2,1.5263021E-2,-1.0422962E-2,-3.768107E-2],"categories":[],"categories_nodes":[],"categories_segments":[],"categories_sizes":[],"default_left":[0,0,0,0,0,0,0,0,0,0,0,0,0,0,0,0,0,0,0,0,0,0,0,0,0,0,0,0,0],"id":19,"left_children":[1,3,-1,5,7,9,11,13,15,17,19,21,23,25,-1,27,-1,-1,-1,-1,-1,-1,-1,-1,-1,-1,-1,-1,-1],"loss_changes":[9.927135E1,9.721347E1,0E0,4.6394733E1,2.0813522E0,2.9747307E1,3.0165462E0,1.7038383E0,6.346476E0,2.6618439E1,2.4999666E0,3.525258E0,1.9027882E0,1.4991722E0,0E0,1.8405914E-4,0E0,0E0,0E0,0E0,0E0,0E0,0E0,0E0,0E0,0E0,0E0,0E0,0E0],"parents":[2147483647,0,0,1,1,3,3,4,4,5,5,6,6,7,7,8,8,9,9,10,10,11,11,12,12,13,13,15,15],"right_children":[2,4,-1,6,8,10,12,14,16,18,20,22,24,26,-1,28,-1,-1,-1,-1,-1,-1,-1,-1,-1,-1,-1,-1,-1],"split_conditions":[1E0,1E0,6.8964735E-2,1E0,5E0,1E0,1.5E1,4E0,4.1E1,1E0,3E0,5E0,3E0,1E0,8.803905E-3,2.6E1,6.543591E-2,-4.0315703E-2,1.4366797E-1,1.012431E-1,1.5186165E-2,4.014283E-2,-3.0775791E-2,7.740108E-2,8.449874E-3,7.437982E-2,1.5263021E-2,-1.0422962E-2,-3.768107E-2],"split_indices":[131,156,0,170,63,163,32,22,61,160,21,44,11,31,0,1,0,0,0,0,0,0,0,0,0,0,0,0,0],"split_type":[0,0,0,0,0,0,0,0,0,0,0,0,0,0,0,0,0,0,0,0,0,0,0,0,0,0,0,0,0],"sum_hessian":[2.629983E2,2.1840137E2,4.4596943E1,1.8367531E2,3.4726055E1,1.6734706E2,1.6328241E1,2.9658806E1,5.0672483E0,1.6273657E2,4.6104975E0,6.780221E0,9.54802E0,2.8215357E1,1.4434489E0,2.1155267E0,2.9517217E0,1.6170251E2,1.0340456E0,3.0322838E0,1.5782135E0,5.170889E0,1.6093321E0,8.127655E0,1.4203662E0,2.6485794E1,1.7295634E0,1.0581876E0,1.0573392E0],"tree_param":{"num_deleted":"0","num_feature":"283","num_nodes":"29","size_leaf_vector":"1"}},{"base_weights":[2.7334435E-2,-2.5115272E-1,1.330951E0,-5.372066E-1,1.2101717E0,6.840088E-2,6.815943E-1,-5.9533226E-1,7.1093135E-2,1.3149792E0,5.244963E-1,-1.893827E-2,6.0273763E-2,-6.75406E-1,7.328735E-1,1.3666555E0,8.537725E-3,-4.340266E-2,1.2167323E0,-1.048398E-2,-4.1091513E-2,-3.417119E-2,5.056068E-2,7.072721E-2,8.503715E-3,7.0218675E-2,1.8216062E-2],"categories":[],"categories_nodes":[],"categories_segments":[],"categories_sizes":[],"default_left":[0,0,0,0,0,0,0,0,0,0,0,0,0,0,0,0,0,0,0,0,0,0,0,0,0,0,0],"id":20,"left_children":[1,3,5,7,9,-1,11,13,-1,15,17,-1,-1,19,21,23,-1,-1,25,-1,-1,-1,-1,-1,-1,-1,-1],"loss_changes":[9.471281E1,9.0543915E1,1.7280579E-1,2.140453E1,1.8623161E0,0E0,2.9411151E0,1.9217491E1,0E0,1.5487862E0,7.1985307E0,0E0,0E0,1.1185326E1,4.8259954E0,1.403698E0,0E0,0E0,2.3571825E-1,0E0,0E0,0E0,0E0,0E0,0E0,0E0,0E0],"parents":[2147483647,0,0,1,1,2,2,3,3,4,4,6,6,7,7,9,9,10,10,13,13,14,14,15,15,18,18],"right_children":[2,4,6,8,10,-1,12,14,-1,16,18,-1,-1,20,22,24,-1,-1,26,-1,-1,-1,-1,-1,-1,-1,-1],"split_conditions":[1E0,1E0,1E0,1E0,5E0,6.840088E-2,1E0,1E0,7.1093135E-2,4E0,4.1E1,-1.893827E-2,6.0273763E-2,1E0,3E0,5E0,8.537725E-3,-4.340266E-2,7E0,-1.048398E-2,-4.1091513E-2,-3.417119E-2,5.056068E-2,7.072721E-2,8.503715E-3,7.0218675E-2,1.8216062E-2],"split_indices":[131,156,138,162,63,0,150,135,0,22,61,0,0,150,52,68,0,0,142,0,0,0,0,0,0,0,0],"split_type":[0,0,0,0,0,0,0,0,0,0,0,0,0,0,0,0,0,0,0,0,0,0,0,0,0,0,0],"sum_hessian":[2.5896695E2,2.1404796E2,4.4918995E1,1.7953618E2,3.4511772E1,4.1446423E1,3.472571E0,1.750389E2,4.4972963E0,2.9139868E1,5.3719044E0,1.2399184E0,2.2326524E0,1.6554985E2,9.489038E0,2.7694706E1,1.4451618E0,1.6993635E0,3.6725411E0,4.0180664E1,1.2536919E2,1.3195131E0,8.169525E0,2.6453838E1,1.240868E0,2.4792523E0,1.1932887E0],"tree_param":{"num_deleted":"0","num_feature":"283","num_nodes":"27","size_leaf_vector":"1"}},{"base_weights":[4.384287E-3,-2.6599893E-1,6.5229766E-2,-5.513084E-1,1.1910305E0,-6.893141E-1,7.016087E-1,1.2386328E0,-4.0518767E-3,-7.700675E-1,7.151331E-2,3.5057405E-1,1.1462877E0,1.2816104E0,7.3393206E-3,-4.2580567E-2,7.316158E-2,4.0914085E-2,-2.7572766E-2,6.754443E-2,1.0591088E-3,6.89829E-2,2.6800646E-2],"categories":[],"categories_nodes":[],"categories_segments":[],"categories_sizes":[],"default_left":[0,0,0,0,0,0,0,0,0,0,0,0,0,0,0,0,0,0,0,0,0,0,0],"id":21,"left_children":[1,3,-1,5,7,9,11,13,-1,15,-1,17,19,21,-1,-1,-1,-1,-1,-1,-1,-1,-1],"loss_changes":[8.9724495E1,8.849405E1,0E0,3.115456E1,2.2146873E0,2.8536499E1,2.4227505E0,1.3941193E0,0E0,2.9483177E1,0E0,5.32526E0,1.7075863E0,1.6226425E0,0E0,0E0,0E0,0E0,0E0,0E0,0E0,0E0,0E0],"parents":[2147483647,0,0,1,1,3,3,4,4,5,5,6,6,7,7,9,9,11,11,12,12,13,13],"right_children":[2,4,-1,6,8,10,12,14,-1,16,-1,18,20,22,-1,-1,-1,-1,-1,-1,-1,-1,-1],"split_conditions":[1E0,1E0,6.5229766E-2,1E0,2E0,1E0,1.9E1,1E0,-4.0518767E-3,1E0,7.151331E-2,3E0,1.5E1,1E0,7.3393206E-3,-4.2580567E-2,7.316158E-2,4.0914085E-2,-2.7572766E-2,6.754443E-2,1.0591088E-3,6.89829E-2,2.6800646E-2],"split_indices":[131,156,0,170,31,162,32,273,0,163,0,39,81,210,0,0,0,0,0,0,0,0,0],"split_type":[0,0,0,0,0,0,0,0,0,0,0,0,0,0,0,0,0,0,0,0,0,0,0],"sum_hessian":[2.5323456E2,2.1029784E2,4.2936718E1,1.7638121E2,3.391662E1,1.5928609E2,1.7095133E1,3.271854E1,1.1980817E0,1.5405353E2,5.2325606E0,1.0552916E1,6.5422163E0,3.1312218E1,1.4063208E0,1.4922363E2,4.8298845E0,7.0106797E0,3.5422363E0,5.3657713E0,1.176445E0,2.6921568E1,4.3906493E0],"tree_param":{"num_deleted":"0","num_feature":"283","num_nodes":"23","size_leaf_vector":"1"}},{"base_weights":[4.36986E-2,1.1003083E0,-2.7800092E-1,4.506817E-1,1.278899E0,-5.4968005E-1,1.1416861E0,-8.832441E-2,1.0894618E0,6.657917E-2,-1.629362E-2,-6.806268E-1,7.177104E-1,7.343922E-1,1.5390192E0,4.49211E-2,-5.511241E-1,1.5830215E0,1.413365E-2,-7.5316185E-1,6.591969E-2,-3.180484E-2,8.555062E-1,9.121166E-1,-2.036198E-2,2.7596558E-2,8.005964E-2,-3.9085846E-2,4.249373E-3,1.5492434E-2,1.03899516E-1,-3.0899605E-2,3.233074E-2,-4.1108415E-2,5.9304625E-2,4.9063537E-2,1.3691281E-3,5.590707E-2,1.0721697E-3],"categories":[],"categories_nodes":[],"categories_segments":[],"categories_sizes":[],"default_left":[0,0,0,0,0,0,0,0,0,0,0,0,0,0,0,0,0,0,0,0,0,0,0,0,0,0,0,0,0,0,0,0,0,0,0,0,0,0,0],"id":22,"left_children":[1,3,5,7,9,11,13,15,17,-1,-1,19,21,23,25,-1,27,29,31,33,-1,-1,35,37,-1,-1,-1,-1,-1,-1,-1,-1,-1,-1,-1,-1,-1,-1,-1],"loss_changes":[8.418851E1,6.1294327E0,7.390201E1,4.919185E0,4.2209625E0,2.7065025E1,3.8607368E0,4.3869424E0,3.419757E0,0E0,0E0,2.211277E1,3.432478E0,3.849516E0,1.8314362E-2,0E0,1.0083005E0,2.1517696E0,1.6187403E0,1.9869507E1,0E0,0E0,1.4810858E0,2.754527E0,0E0,0E0,0E0,0E0,0E0,0E0,0E0,0E0,0E0,0E0,0E0,0E0,0E0,0E0,0E0],"parents":[2147483647,0,0,1,1,2,2,3,3,4,4,5,5,6,6,7,7,8,8,11,11,12,12,13,13,14,14,16,16,17,17,18,18,19,19,22,22,23,23],"right_children":[2,4,6,8,10,12,14,16,18,-1,-1,20,22,24,26,-1,28,30,32,34,-1,-1,36,38,-1,-1,-1,-1,-1,-1,-1,-1,-1,-1,-1,-1,-1,-1,-1],"split_conditions":[2E0,1E0,1E0,7E0,2E0,1E0,5E0,1E0,1.4E1,6.657917E-2,-1.629362E-2,1E0,7E0,9E0,1E0,4.49211E-2,1E0,5E0,2.9E1,1E0,6.591969E-2,-3.180484E-2,6E0,1E0,-2.036198E-2,2.7596558E-2,8.005964E-2,-3.9085846E-2,4.249373E-3,1.5492434E-2,1.03899516E-1,-3.0899605E-2,3.233074E-2,-4.1108415E-2,5.9304625E-2,4.9063537E-2,1.3691281E-3,5.590707E-2,1.0721697E-3],"split_indices":[141,132,156,64,130,170,141,68,64,0,0,162,0,43,66,0,108,37,66,163,0,0,9,11,0,0,0,0,0,0,0,0,0,0,0,0,0,0,0],"split_type":[0,0,0,0,0,0,0,0,0,0,0,0,0,0,0,0,0,0,0,0,0,0,0,0,0,0,0,0,0,0,0,0,0,0,0,0,0,0,0],"sum_hessian":[2.4577829E2,5.6800137E1,1.8897815E2,1.3007752E1,4.379238E1,1.5913753E2,2.9840616E1,7.522205E0,5.4855475E0,4.256521E1,1.2271744E0,1.4465477E2,1.4482759E1,1.6142124E1,1.3698492E1,2.101107E0,5.4210978E0,3.4362369E0,2.049311E0,1.4019113E2,4.4636436E0,1.003861E0,1.3478898E1,1.4141653E1,2.0004709E0,1.3969735E0,1.2301518E1,3.8107772E0,1.6103206E0,1.4171079E0,2.0191288E0,1.0364008E0,1.0129101E0,1.3593022E2,4.260901E0,1.1541235E1,1.9376637E0,1.1277602E1,2.8640516E0],"tree_param":{"num_deleted":"0","num_feature":"283","num_nodes":"39","size_leaf_vector":"1"}},{"base_weights":[2.047324E-2,-2.341382E-1,1.2382381E0,-4.8971552E-1,1.0544974E0,6.5247305E-2,-2.0366533E-2,-6.378043E-1,6.913974E-1,7.214617E-1,1.3799992E0,-7.0769966E-1,6.451786E-2,-3.372911E-2,8.138149E-1,6.344406E-2,9.358851E-1,7.428281E-2,2.1938728E-3,-3.66096E-2,6.7875475E-2,4.4448357E-2,-6.251248E-3,3.4464862E-2,-3.718605E-2,6.0976196E-2,-2.2451642E-3],"categories":[],"categories_nodes":[],"categories_segments":[],"categories_sizes":[],"default_left":[0,0,0,0,0,0,0,0,0,0,0,0,0,0,0,0,0,0,0,0,0,0,0,0,0,0,0],"id":23,"left_children":[1,3,5,7,9,-1,-1,11,13,15,17,19,-1,-1,21,23,25,-1,-1,-1,-1,-1,-1,-1,-1,-1,-1],"loss_changes":[7.6319084E1,6.758714E1,5.203705E0,3.0285099E1,2.6925201E0,0E0,0E0,2.1416538E1,3.8080301E0,2.6090097E0,2.2091007E0,8.452774E0,0E0,0E0,1.4051275E0,3.4026096E0,4.002618E0,0E0,0E0,0E0,0E0,0E0,0E0,0E0,0E0,0E0,0E0],"parents":[2147483647,0,0,1,1,2,2,3,3,4,4,7,7,8,8,9,9,10,10,11,11,14,14,15,15,16,16],"right_children":[2,4,6,8,10,-1,-1,12,14,16,18,20,-1,-1,22,24,26,-1,-1,-1,-1,-1,-1,-1,-1,-1,-1],"split_conditions":[1E0,1E0,2E0,1E0,5E0,6.5247305E-2,-2.0366533E-2,1E0,7E0,2E0,1E0,1E0,6.451786E-2,-3.372911E-2,1E0,7E0,9E0,7.428281E-2,2.1938728E-3,-3.66096E-2,6.7875475E-2,4.4448357E-2,-6.251248E-3,3.4464862E-2,-3.718605E-2,6.0976196E-2,-2.2451642E-3],"split_indices":[131,156,130,170,141,0,0,162,0,142,220,138,0,0,219,7,43,0,0,0,0,0,0,0,0,0,0],"split_type":[0,0,0,0,0,0,0,0,0,0,0,0,0,0,0,0,0,0,0,0,0,0,0,0,0,0,0],"sum_hessian":[2.442104E2,2.0264824E2,4.1562157E1,1.6962599E2,3.3022243E1,4.014188E1,1.4202751E0,1.511364E2,1.8489595E1,1.791206E1,1.5110183E1,1.4646022E2,4.676176E0,1.1497501E0,1.7339846E1,4.7208138E0,1.3191246E1,1.3899157E1,1.2110258E0,1.4538153E2,1.0786908E0,1.6103884E1,1.2359612E0,2.7413073E0,1.9795063E0,1.004335E1,3.1478958E0],"tree_param":{"num_deleted":"0","num_feature":"283","num_nodes":"27","size_leaf_vector":"1"}},{"base_weights":[1.9429997E-2,-2.2481737E-1,1.2178252E0,-4.9270394E-1,1.0643767E0,1.274187E0,-1.5616916E-2,-5.4649395E-1,1.12936474E-1,1.165041E0,1.981877E-1,6.494397E-2,2.5553668E-2,-5.868076E-1,1.4122626E-1,1.2752576E0,3.3771378E-1,-3.0186137E-2,5.2060485E-2,-3.5862666E-2,2.7840907E-2,6.7638084E-2,1.926201E-2,4.0471353E-2,-3.018705E-2],"categories":[],"categories_nodes":[],"categories_segments":[],"categories_sizes":[],"default_left":[0,0,0,0,0,0,0,0,0,0,0,0,0,0,0,0,0,0,0,0,0,0,0,0,0],"id":24,"left_children":[1,3,5,7,9,11,-1,13,-1,15,17,-1,-1,19,-1,21,23,-1,-1,-1,-1,-1,-1,-1,-1],"loss_changes":[6.859138E1,6.77756E1,3.8193817E0,2.5197086E1,2.7178764E0,6.086731E-2,0E0,2.334832E1,0E0,2.3133125E0,3.8235106E0,0E0,0E0,2.4052467E1,0E0,1.285759E0,2.6637986E0,0E0,0E0,0E0,0E0,0E0,0E0,0E0,0E0],"parents":[2147483647,0,0,1,1,2,2,3,3,4,4,5,5,7,7,9,9,10,10,13,13,15,15,16,16],"right_children":[2,4,6,8,10,12,-1,14,-1,16,18,-1,-1,20,-1,22,24,-1,-1,-1,-1,-1,-1,-1,-1],"split_conditions":[1E0,1E0,2E0,1E0,1.1E1,3E0,-1.5616916E-2,1E0,1.12936474E-1,1E0,7E0,6.494397E-2,2.5553668E-2,1E0,1.4122626E-1,5E0,1.08E2,-3.0186137E-2,5.2060485E-2,-3.5862666E-2,2.7840907E-2,6.7638084E-2,1.926201E-2,4.0471353E-2,-3.018705E-2],"split_indices":[132,156,130,171,17,152,0,160,0,210,64,0,0,170,0,63,0,0,0,0,0,0,0,0,0],"split_type":[0,0,0,0,0,0,0,0,0,0,0,0,0,0,0,0,0,0,0,0,0,0,0,0,0],"sum_hessian":[2.324009E2,1.9372899E2,3.8671898E1,1.6091058E2,3.281841E1,3.7459415E1,1.2124854E0,1.5861115E2,2.2994394E0,2.909241E1,3.725999E0,3.560524E1,1.854176E0,1.5755292E2,1.0582337E0,2.5194569E1,3.89784E0,2.055038E0,1.6709611E0,1.4175653E2,1.5796385E1,2.2698061E1,2.496509E0,2.6901739E0,1.2076662E0],"tree_param":{"num_deleted":"0","num_feature":"283","num_nodes":"25","size_leaf_vector":"1"}},{"base_weights":[1.3571173E-3,-2.4396051E-1,1.2024213E0,-5.11211E-1,1.0795475E0,6.290767E-2,-1.5055521E-2,-5.7685E-1,6.463326E-2,1.1658148E0,3.9151406E-1,-7.034349E-1,4.9866623E-1,1.2179296E0,4.392366E-3,-1.0824513E-2,4.6356183E-2,-3.8674925E-2,6.2307145E-2,-2.0175079E-2,3.5665866E-2,6.501304E-2,3.3309314E-2],"categories":[],"categories_nodes":[],"categories_segments":[],"categories_sizes":[],"default_left":[0,0,0,0,0,0,0,0,0,0,0,0,0,0,0,0,0,0,0,0,0,0,0],"id":25,"left_children":[1,3,5,7,9,-1,-1,11,-1,13,15,17,19,21,-1,-1,-1,-1,-1,-1,-1,-1,-1],"loss_changes":[6.769266E1,6.803347E1,3.644043E0,1.9620556E1,1.4650803E0,0E0,0E0,2.1385662E1,0E0,1.480648E0,1.865597E0,1.9902649E1,3.5518107E0,3.5482025E-1,0E0,0E0,0E0,0E0,0E0,0E0,0E0,0E0,0E0],"parents":[2147483647,0,0,1,1,2,2,3,3,4,4,7,7,9,9,10,10,11,11,12,12,13,13],"right_children":[2,4,6,8,10,-1,-1,12,-1,14,16,18,20,22,-1,-1,-1,-1,-1,-1,-1,-1,-1],"split_conditions":[1E0,1E0,2E0,1E0,1E0,6.290767E-2,-1.5055521E-2,1E0,6.463326E-2,1E0,2E0,1E0,5E0,5E0,4.392366E-3,-1.0824513E-2,4.6356183E-2,-3.8674925E-2,6.2307145E-2,-2.0175079E-2,3.5665866E-2,6.501304E-2,3.3309314E-2],"split_indices":[131,156,130,162,210,0,0,170,0,273,80,163,12,63,0,0,0,0,0,0,0,0,0],"split_type":[0,0,0,0,0,0,0,0,0,0,0,0,0,0,0,0,0,0,0,0,0,0,0],"sum_hessian":[2.2774968E2,1.8978328E2,3.79664E1,1.5840997E2,3.1373318E1,3.6766747E1,1.1996515E0,1.535045E2,4.905469E0,2.7260868E1,4.112448E0,1.3764954E2,1.5854963E1,2.5879858E1,1.381011E0,2.2051027E0,1.9073455E0,1.3345663E2,4.1928954E0,2.8782058E0,1.2976757E1,2.1339005E1,4.540854E0],"tree_param":{"num_deleted":"0","num_feature":"283","num_nodes":"23","size_leaf_vector":"1"}},{"base_weights":[1.07080955E-2,-2.3494127E-1,1.218336E0,-4.7980657E-1,9.4390357E-1,6.266076E-2,8.467167E-4,-6.168814E-1,6.852469E-1,1.0086164E0,-6.80026E-3,-6.9402355E-1,1.2715708E0,-4.926725E-2,1.0186455E0,7.1787655E-1,1.2880797E0,-3.7260965E-2,1.0308778E-1,9.316545E-2,-1.8222414E-2,3.84758E-2,-2.5680257E-2,6.455034E-2,7.821039E-3,4.2464163E-2,-1.140631E-2,7.01233E-2,7.797725E-3],"categories":[],"categories_nodes":[],"categories_segments":[],"categories_sizes":[],"default_left":[0,0,0,0,0,0,0,0,0,0,0,0,0,0,0,0,0,0,0,0,0,0,0,0,0,0,0,0,0],"id":26,"left_children":[1,3,5,7,9,-1,-1,11,13,15,-1,17,19,21,23,25,27,-1,-1,-1,-1,-1,-1,-1,-1,-1,-1,-1,-1],"loss_changes":[6.584576E1,5.370461E1,1.5508919E0,2.4922882E1,2.3780746E0,0E0,0E0,2.095575E1,4.1210814E0,1.5430641E0,0E0,2.0304848E1,6.25613E0,2.731016E0,2.493967E0,2.3250074E0,1.623703E0,0E0,0E0,0E0,0E0,0E0,0E0,0E0,0E0,0E0,0E0,0E0,0E0],"parents":[2147483647,0,0,1,1,2,2,3,3,4,4,7,7,8,8,9,9,11,11,12,12,13,13,14,14,15,15,16,16],"right_children":[2,4,6,8,10,-1,-1,12,14,16,-1,18,20,22,24,26,28,-1,-1,-1,-1,-1,-1,-1,-1,-1,-1,-1,-1],"split_conditions":[1E0,1E0,1E0,1E0,1E0,6.266076E-2,8.467167E-4,1E0,9E0,5E0,-6.80026E-3,1E0,3E0,1E0,5E0,1E0,1E0,-3.7260965E-2,1.0308778E-1,9.316545E-2,-1.8222414E-2,3.84758E-2,-2.5680257E-2,6.455034E-2,7.821039E-3,4.2464163E-2,-1.140631E-2,7.01233E-2,7.797725E-3],"split_indices":[131,156,130,170,31,0,0,163,12,141,0,171,143,10,44,82,220,0,0,0,0,0,0,0,0,0,0,0,0],"split_type":[0,0,0,0,0,0,0,0,0,0,0,0,0,0,0,0,0,0,0,0,0,0,0,0,0,0,0,0,0],"sum_hessian":[2.199973E2,1.8348018E2,3.6517128E1,1.5241423E2,3.1065939E1,3.5444958E1,1.072171E0,1.367906E2,1.5623633E1,2.9371866E1,1.6940732E0,1.3202975E2,4.7608514E0,5.1437073E0,1.0479926E1,1.6144594E1,1.3227271E1,1.3033797E2,1.6917853E0,3.394245E0,1.3666064E0,1.6235723E0,3.5201347E0,7.5862646E0,2.8936613E0,1.4265283E1,1.8793118E0,1.1796593E1,1.4306784E0],"tree_param":{"num_deleted":"0","num_feature":"283","num_nodes":"29","size_leaf_vector":"1"}},{"base_weights":[5.4369446E-2,-1.7173517E-1,1.1514864E0,-4.2212602E-1,9.8716366E-1,1.2203704E0,-1.9156253E-2,-4.628373E-1,1.273368E-1,1.0472006E0,8.5812213E-4,6.2312555E-2,1.9244699E-2,-5.333833E-1,6.4537026E-2,1.1550751E0,3.4598038E-1,-4.7495984E-3,-3.534362E-2,6.0194105E-2,8.181506E-3,-1.4529653E-2,5.6349993E-2],"categories":[],"categories_nodes":[],"categories_segments":[],"categories_sizes":[],"default_left":[0,0,0,0,0,0,0,0,0,0,0,0,0,0,0,0,0,0,0,0,0,0,0],"id":27,"left_children":[1,3,5,7,9,11,-1,13,-1,15,-1,-1,-1,17,-1,19,21,-1,-1,-1,-1,-1,-1],"loss_changes":[5.5028145E1,5.384862E1,4.4738464E0,1.9564882E1,1.9046898E0,3.0976105E-1,0E0,1.935704E1,0E0,1.9509315E0,0E0,0E0,0E0,1.1020298E1,0E0,1.0855026E0,3.097093E0,0E0,0E0,0E0,0E0,0E0,0E0],"parents":[2147483647,0,0,1,1,2,2,3,3,4,4,5,5,7,7,9,9,13,13,15,15,16,16],"right_children":[2,4,6,8,10,12,-1,14,-1,16,-1,-1,-1,18,-1,20,22,-1,-1,-1,-1,-1,-1],"split_conditions":[1E0,1E0,2E0,1E0,1E0,3E0,-1.9156253E-2,1E0,1.273368E-1,9E0,8.5812213E-4,6.2312555E-2,1.9244699E-2,1E0,6.4537026E-2,4E0,3E0,-4.7495984E-3,-3.534362E-2,6.0194105E-2,8.181506E-3,-1.4529653E-2,5.6349993E-2],"split_indices":[131,156,130,160,31,152,0,162,0,43,0,0,0,150,0,19,80,0,0,0,0,0,0],"split_type":[0,0,0,0,0,0,0,0,0,0,0,0,0,0,0,0,0,0,0,0,0,0,0],"sum_hessian":[2.2003397E2,1.8313515E2,3.689882E1,1.5112001E2,3.201513E1,3.5509666E1,1.3891509E0,1.4990846E2,1.2115552E0,3.0074146E1,1.9409838E0,3.3965836E1,1.5438318E0,1.4477983E2,5.1286283E0,2.5503496E1,4.5706496E0,4.1488827E1,1.0329101E2,2.4102694E1,1.4008024E0,2.864146E0,1.7065037E0],"tree_param":{"num_deleted":"0","num_feature":"283","num_nodes":"23","size_leaf_vector":"1"}},{"base_weights":[1.5566427E-2,9.104495E-1,-2.8241637E-1,4.0762696E-1,1.1418977E0,-5.120867E-1,9.051102E-1,2.085955E-1,7.818108E-2,1.1986331E0,-1.4268695E-2,-5.864056E-1,6.156524E-2,9.8163253E-1,-6.4905672E-3,4.257141E-1,-6.1703235E-1,6.124444E-2,2.1607418E-2,-7.235288E-1,4.3848005E-1,1.0829446E0,3.2646695E-1,8.023869E-3,4.6884045E-2,-3.993435E-2,-2.692335E-3,-4.0316567E-2,6.039839E-2,-3.782468E-2,3.005597E-2,4.060946E-2,6.7381576E-2,-3.7738334E-2,4.406056E-2],"categories":[],"categories_nodes":[],"categories_segments":[],"categories_sizes":[],"default_left":[0,0,0,0,0,0,0,0,0,0,0,0,0,0,0,0,0,0,0,0,0,0,0,0,0,0,0,0,0,0,0,0,0,0,0],"id":28,"left_children":[1,3,5,7,9,11,13,15,-1,17,-1,19,-1,21,-1,23,25,-1,-1,27,29,31,33,-1,-1,-1,-1,-1,-1,-1,-1,-1,-1,-1,-1],"loss_changes":[5.689435E1,5.7367363E0,4.4129425E1,3.896671E0,3.252369E0,1.8186867E1,2.2108212E0,3.2763648E0,0E0,1.7016983E-1,0E0,1.858128E1,0E0,1.2801609E0,0E0,1.7374568E0,3.5688424E-1,0E0,0E0,1.9366528E1,3.5562997E0,4.0219498E-1,3.500919E0,0E0,0E0,0E0,0E0,0E0,0E0,0E0,0E0,0E0,0E0,0E0,0E0],"parents":[2147483647,0,0,1,1,2,2,3,3,4,4,5,5,6,6,7,7,9,9,11,11,13,13,15,15,16,16,19,19,20,20,21,21,22,22],"right_children":[2,4,6,8,10,12,14,16,-1,18,-1,20,-1,22,-1,24,26,-1,-1,28,30,32,34,-1,-1,-1,-1,-1,-1,-1,-1,-1,-1,-1,-1],"split_conditions":[3E0,1E0,1E0,3.2E1,2E0,1E0,1E0,7E0,7.818108E-2,3E0,-1.4268695E-2,1E0,6.156524E-2,9E0,-6.4905672E-3,1E0,2.2E1,6.124444E-2,2.1607418E-2,1E0,2E0,4E0,5E0,8.023869E-3,4.6884045E-2,-3.993435E-2,-2.692335E-3,-4.0316567E-2,6.039839E-2,-3.782468E-2,3.005597E-2,4.060946E-2,6.7381576E-2,-3.7738334E-2,4.406056E-2],"split_indices":[141,131,156,66,130,162,31,67,0,152,0,170,0,43,0,156,66,0,0,163,7,34,37,0,0,0,0,0,0,0,0,0,0,0,0],"split_type":[0,0,0,0,0,0,0,0,0,0,0,0,0,0,0,0,0,0,0,0,0,0,0,0,0,0,0,0,0,0,0,0,0,0,0],"sum_hessian":[2.1139507E2,5.2293915E1,1.5910115E2,1.7353827E1,3.494009E1,1.3379388E2,2.5307262E1,1.5811888E1,1.5419384E0,3.3758358E1,1.1817334E0,1.289601E2,4.8337865E0,2.3612818E1,1.6944456E0,1.2903087E1,2.9088006E0,3.2062023E1,1.6963333E0,1.14001465E2,1.4958636E1,1.9884954E1,3.7278621E0,9.364853E0,3.5382347E0,1.8832135E0,1.0255871E0,1.0987376E2,4.1277127E0,1.3545897E0,1.3604046E1,1.184098E1,8.043975E0,1.1418172E0,2.586045E0],"tree_param":{"num_deleted":"0","num_feature":"283","num_nodes":"35","size_leaf_vector":"1"}},{"base_weights":[-1.0228751E-2,-2.423795E-1,1.1293371E0,-4.9017483E-1,9.258644E-1,5.9304964E-2,-1.4123948E-2,-6.2723917E-1,4.9411675E-1,7.099441E-1,1.2705238E0,-6.8524975E-1,1.0082989E-1,-6.422588E-2,7.8118265E-1,8.971232E-1,-3.4122482E-2,6.84668E-2,2.3228042E-2,-3.801794E-2,5.7728816E-2,1.9380273E-2,-4.980057E-2,4.9517546E-2,-2.2239264E-3,4.827159E-2,-5.2376892E-3],"categories":[],"categories_nodes":[],"categories_segments":[],"categories_sizes":[],"default_left":[0,0,0,0,0,0,0,0,0,0,0,0,0,0,0,0,0,0,0,0,0,0,0,0,0,0,0],"id":29,"left_children":[1,3,5,7,9,-1,-1,11,13,15,17,19,-1,21,23,25,-1,-1,-1,-1,-1,-1,-1,-1,-1,-1,-1],"loss_changes":[5.5444103E1,5.08453E1,3.177597E0,1.9772923E1,1.3906574E0,0E0,0E0,2.0871006E1,2.9661684E0,6.139538E0,2.0801163E-1,1.8163795E1,0E0,3.3759146E0,2.1322575E0,1.4100971E0,0E0,0E0,0E0,0E0,0E0,0E0,0E0,0E0,0E0,0E0,0E0],"parents":[2147483647,0,0,1,1,2,2,3,3,4,4,7,7,8,8,9,9,10,10,11,11,13,13,14,14,15,15],"right_children":[2,4,6,8,10,-1,-1,12,14,16,18,20,-1,22,24,26,-1,-1,-1,-1,-1,-1,-1,-1,-1,-1,-1],"split_conditions":[1E0,1E0,2E0,1E0,1.3E1,5.9304964E-2,-1.4123948E-2,1E0,9E0,1.7E2,1.3E1,1E0,1.0082989E-1,3E0,2.9E1,4E0,-3.4122482E-2,6.84668E-2,2.3228042E-2,-3.801794E-2,5.7728816E-2,1.9380273E-2,-4.980057E-2,4.9517546E-2,-2.2239264E-3,4.827159E-2,-5.2376892E-3],"split_indices":[131,156,130,170,66,0,0,171,6,0,99,162,0,38,10,52,0,0,0,0,0,0,0,0,0,0,0],"split_type":[0,0,0,0,0,0,0,0,0,0,0,0,0,0,0,0,0,0,0,0,0,0,0,0,0,0,0],"sum_hessian":[2.0754338E2,1.7307259E2,3.44708E1,1.4326515E2,2.9807442E1,3.3292164E1,1.1786368E0,1.2607213E2,1.7193014E1,2.0207687E1,9.599754E0,1.2409018E2,1.9819534E0,6.1016273E0,1.1091388E1,1.8126627E1,2.0810602E0,7.9286823E0,1.6710722E0,1.1978673E2,4.3034477E0,4.5023937E0,1.5992335E0,8.690358E0,2.4010293E0,1.7003683E1,1.1229429E0],"tree_param":{"num_deleted":"0","num_feature":"283","num_nodes":"27","size_leaf_vector":"1"}},{"base_weights":[3.362881E-2,-1.8243788E-1,1.110168E0,-4.0675735E-1,9.646498E-1,1.1684192E0,-1.3601015E-2,-4.7331643E-1,6.599828E-2,1.0335236E0,-1.6152527E-3,5.982442E-2,1.9568095E-2,-5.4057425E-1,1.2729374E0,1.1482947E0,5.8684015E-1,-3.1575914E-2,3.043185E-2,8.460362E-2,-1.2598318E-2,6.1378576E-2,2.1248763E-2,-3.3031534E-2,5.8896035E-2],"categories":[],"categories_nodes":[],"categories_segments":[],"categories_sizes":[],"default_left":[0,0,0,0,0,0,0,0,0,0,0,0,0,0,0,0,0,0,0,0,0,0,0,0,0],"id":30,"left_children":[1,3,5,7,9,11,-1,13,-1,15,-1,-1,-1,17,19,21,23,-1,-1,-1,-1,-1,-1,-1,-1],"loss_changes":[4.6636585E1,4.3393913E1,3.0158615E0,1.677059E1,1.9306946E0,2.3719406E-1,0E0,1.6662039E1,0E0,6.527271E-1,0E0,0E0,0E0,1.4145176E1,3.8407507E0,5.9887886E-1,6.1865396E0,0E0,0E0,0E0,0E0,0E0,0E0,0E0,0E0],"parents":[2147483647,0,0,1,1,2,2,3,3,4,4,5,5,7,7,9,9,13,13,14,14,15,15,16,16],"right_children":[2,4,6,8,10,12,-1,14,-1,16,-1,-1,-1,18,20,22,24,-1,-1,-1,-1,-1,-1,-1,-1],"split_conditions":[1E0,1E0,2E0,1E0,1E0,3E0,-1.3601015E-2,1E0,6.599828E-2,1E0,-1.6152527E-3,5.982442E-2,1.9568095E-2,3E0,1E0,8E0,1E1,-3.1575914E-2,3.043185E-2,8.460362E-2,-1.2598318E-2,6.1378576E-2,2.1248763E-2,-3.3031534E-2,5.8896035E-2],"split_indices":[131,156,130,162,27,152,0,163,0,71,0,0,0,140,211,38,72,0,0,0,0,0,0,0,0],"split_type":[0,0,0,0,0,0,0,0,0,0,0,0,0,0,0,0,0,0,0,0,0,0,0,0,0],"sum_hessian":[1.9862683E2,1.6611688E2,3.250994E1,1.3948517E2,2.6631714E1,3.1343647E1,1.1662942E0,1.3500702E2,4.4781566E0,2.4876465E1,1.7552493E0,2.9729961E1,1.6136858E0,1.3066483E2,4.3421817E0,1.8541649E1,6.3348155E0,1.2150026E2,9.164576E0,3.3200164E0,1.0221653E0,1.6081913E1,2.4597354E0,1.9987673E0,4.336048E0],"tree_param":{"num_deleted":"0","num_feature":"283","num_nodes":"25","size_leaf_vector":"1"}},{"base_weights":[5.3806163E-2,9.556857E-1,-1.9560742E-1,5.342055E-1,1.0897182E0,-4.1123414E-1,8.446505E-1,-9.330667E-2,1.0686201E0,5.5683035E-2,2.172318E-2,-4.5958063E-1,1.4119504E-1,9.517191E-1,1.3907607E-1,5.681603E-1,-5.645713E-1,-1.6978523E-2,1.6584675E0,-5.954794E-1,5.444709E-1,1.024029E0,1.6351102E-1,-3.5625394E-2,4.1874655E-2,-1.1435555E-3,4.31776E-2,-3.977214E-2,1.376898E-3,-2.8888581E-2,2.6992826E-2,1.1145744E-2,1.0326175E-1,-3.436109E-2,6.467938E-2,-1.313255E-2,4.139256E-2,5.4334473E-2,6.808953E-3,3.3663854E-2,-2.096108E-2],"categories":[],"categories_nodes":[],"categories_segments":[],"categories_sizes":[],"default_left":[0,0,0,0,0,0,0,0,0,0,0,0,0,0,0,0,0,0,0,0,0,0,0,0,0,0,0,0,0,0,0,0,0,0,0,0,0,0,0,0,0],"id":31,"left_children":[1,3,5,7,9,11,13,15,17,-1,-1,19,-1,21,23,25,27,29,31,33,35,37,39,-1,-1,-1,-1,-1,-1,-1,-1,-1,-1,-1,-1,-1,-1,-1,-1,-1,-1],"loss_changes":[4.4789204E1,1.8541298E0,3.5374863E1,4.2469726E0,1.4404297E-2,2.1633871E1,1.9178333E0,2.3805628E0,4.3563275E0,0E0,0E0,1.7921463E1,0E0,1.1657944E0,3.4199126E0,5.867187E-1,6.179501E-1,1.364095E0,2.1029491E0,2.0657894E1,3.8534212E0,1.0334568E0,1.2196646E0,0E0,0E0,0E0,0E0,0E0,0E0,0E0,0E0,0E0,0E0,0E0,0E0,0E0,0E0,0E0,0E0,0E0,0E0],"parents":[2147483647,0,0,1,1,2,2,3,3,4,4,5,5,6,6,7,7,8,8,11,11,13,13,14,14,15,15,16,16,17,17,18,18,19,19,20,20,21,21,22,22],"right_children":[2,4,6,8,10,12,14,16,18,-1,-1,20,-1,22,24,26,28,30,32,34,36,38,40,-1,-1,-1,-1,-1,-1,-1,-1,-1,-1,-1,-1,-1,-1,-1,-1,-1,-1],"split_conditions":[2E0,1E0,1E0,1E0,3E0,1E0,1E0,4E0,5E0,5.5683035E-2,2.172318E-2,1E0,1.4119504E-1,1E0,2E0,3E0,3E0,4E0,5E0,1E0,6E0,1E0,2.5E1,-3.5625394E-2,4.1874655E-2,-1.1435555E-3,4.31776E-2,-3.977214E-2,1.376898E-3,-2.8888581E-2,2.6992826E-2,1.1145744E-2,1.0326175E-1,-3.436109E-2,6.467938E-2,-1.313255E-2,4.139256E-2,5.4334473E-2,6.808953E-3,3.3663854E-2,-2.096108E-2],"split_indices":[141,131,156,79,152,160,210,34,37,0,0,170,0,276,80,143,109,142,143,162,6,27,12,0,0,0,0,0,0,0,0,0,0,0,0,0,0,0,0,0,0],"split_type":[0,0,0,0,0,0,0,0,0,0,0,0,0,0,0,0,0,0,0,0,0,0,0,0,0,0,0,0,0,0,0,0,0,0,0,0,0,0,0,0,0],"sum_hessian":[1.9728427E2,4.2125767E1,1.5515851E2,1.136691E1,3.0758858E1,1.2901973E2,2.6138783E1,5.607712E0,5.7591977E0,2.8999653E1,1.7592043E0,1.27965324E2,1.0543987E0,2.2392014E1,3.7467694E0,2.2475057E0,3.3602064E0,2.3694687E0,3.389729E0,1.130684E2,1.4896933E1,2.0236351E1,2.1556613E0,1.6791708E0,2.0675986E0,1.0563974E0,1.1911083E0,2.1704953E0,1.1897111E0,1.1618056E0,1.207663E0,1.0902089E0,2.2995203E0,1.0843831E2,4.6300874E0,3.8901596E0,1.1006773E1,1.869312E1,1.5432332E0,1.0669392E0,1.0887221E0],"tree_param":{"num_deleted":"0","num_feature":"283","num_nodes":"41","size_leaf_vector":"1"}},{"base_weights":[-1.2716263E-2,-2.3194945E-1,1.0763317E0,-4.6799412E-1,8.446487E-1,1.1387876E0,-1.4591222E-2,-5.1943135E-1,9.599408E-2,9.48645E-1,2.1494001E-1,5.832695E-2,2.3439178E-2,-6.4680296E-1,4.480478E-1,1.0194066E0,-4.734048E-3,-4.5598075E-1,5.322766E-2,-3.566843E-2,5.4307103E-2,-2.3471022E-3,4.4777703E-2,5.4048695E-2,-5.3039473E-3,1.2575025E-2,-4.4927236E-2],"categories":[],"categories_nodes":[],"categories_segments":[],"categories_sizes":[],"default_left":[0,0,0,0,0,0,0,0,0,0,0,0,0,0,0,0,0,0,0,0,0,0,0,0,0,0,0],"id":32,"left_children":[1,3,5,7,9,11,-1,13,-1,15,17,-1,-1,19,21,23,-1,25,-1,-1,-1,-1,-1,-1,-1,-1,-1],"loss_changes":[4.5462234E1,4.0663326E1,3.0590477E0,1.7039072E1,1.6854725E0,2.4353027E-2,0E0,1.614196E1,0E0,1.9029751E0,3.5534658E0,0E0,0E0,1.3934814E1,3.48793E0,1.7083778E0,0E0,1.3868378E0,0E0,0E0,0E0,0E0,0E0,0E0,0E0,0E0,0E0],"parents":[2147483647,0,0,1,1,2,2,3,3,4,4,5,5,7,7,9,9,10,10,13,13,14,14,15,15,17,17],"right_children":[2,4,6,8,10,12,-1,14,-1,16,18,-1,-1,20,22,24,-1,26,-1,-1,-1,-1,-1,-1,-1,-1,-1],"split_conditions":[1E0,1E0,2E0,1E0,9E0,3E0,-1.4591222E-2,1E0,9.599408E-2,1E0,1.9E1,5.832695E-2,2.3439178E-2,1E0,2E0,4E0,-4.734048E-3,5E0,5.322766E-2,-3.566843E-2,5.4307103E-2,-2.3471022E-3,4.4777703E-2,5.4048695E-2,-5.3039473E-3,1.2575025E-2,-4.4927236E-2],"split_indices":[131,156,130,171,43,152,0,170,0,31,72,0,0,163,20,19,0,17,0,0,0,0,0,0,0,0,0],"split_type":[0,0,0,0,0,0,0,0,0,0,0,0,0,0,0,0,0,0,0,0,0,0,0,0,0,0,0],"sum_hessian":[1.8836774E2,1.5745744E2,3.0910295E1,1.2960646E2,2.7850977E1,2.972118E1,1.1891158E0,1.2763945E2,1.9670092E0,2.346865E1,4.3823256E0,2.7827488E1,1.8936929E0,1.1308315E2,1.4556296E1,2.1999504E1,1.4691471E0,2.707545E0,1.6747806E0,1.0946669E2,3.6164627E0,7.3364735E0,7.219823E0,2.089598E1,1.1035227E0,1.2080615E0,1.4994836E0],"tree_param":{"num_deleted":"0","num_feature":"283","num_nodes":"27","size_leaf_vector":"1"}},{"base_weights":[2.1532722E-2,-1.7462887E-1,1.047495E0,-3.834939E-1,7.743928E-1,1.1267369E0,-1.8674508E-2,-4.2894804E-1,1.1621516E-1,9.08557E-1,1.1337217E-1,5.784163E-2,1.533161E-2,-4.8421836E-1,9.548946E-2,1.0507529E0,9.46622E-2,-4.633703E-2,8.2389987E-1,-3.1561747E-2,2.4534043E-2,5.594462E-2,-4.888449E-3,-2.5332445E-2,3.4682244E-2,5.1120397E-2,8.443157E-3],"categories":[],"categories_nodes":[],"categories_segments":[],"categories_sizes":[],"default_left":[0,0,0,0,0,0,0,0,0,0,0,0,0,0,0,0,0,0,0,0,0,0,0,0,0,0,0],"id":33,"left_children":[1,3,5,7,9,11,-1,13,-1,15,17,-1,-1,19,-1,21,23,-1,25,-1,-1,-1,-1,-1,-1,-1,-1],"loss_changes":[3.858971E1,3.2222492E1,3.8860168E0,1.732716E1,2.5029678E0,3.7085342E-1,0E0,1.7901138E1,0E0,2.7110023E0,5.2718787E0,0E0,0E0,1.8812883E1,0E0,1.7194653E0,2.0481129E0,0E0,3.6747074E-1,0E0,0E0,0E0,0E0,0E0,0E0,0E0,0E0],"parents":[2147483647,0,0,1,1,2,2,3,3,4,4,5,5,7,7,9,9,10,10,13,13,15,15,16,16,18,18],"right_children":[2,4,6,8,10,12,-1,14,-1,16,18,-1,-1,20,-1,22,24,-1,26,-1,-1,-1,-1,-1,-1,-1,-1],"split_conditions":[1E0,1E0,2E0,1E0,5E0,3E0,-1.8674508E-2,1E0,1.1621516E-1,1E0,4.1E1,5.784163E-2,1.533161E-2,1E0,9.548946E-2,1.2E1,2E0,-4.633703E-2,7E0,-3.1561747E-2,2.4534043E-2,5.594462E-2,-4.888449E-3,-2.5332445E-2,3.4682244E-2,5.1120397E-2,8.443157E-3],"split_indices":[131,156,130,160,63,152,0,171,0,210,61,0,0,170,0,17,80,0,142,0,0,0,0,0,0,0,0],"split_type":[0,0,0,0,0,0,0,0,0,0,0,0,0,0,0,0,0,0,0,0,0,0,0,0,0,0,0],"sum_hessian":[1.89837E2,1.6006311E2,2.9773903E1,1.3167859E2,2.8384521E1,2.8397385E1,1.3765186E0,1.3033237E2,1.3462218E0,2.3284168E1,5.100353E0,2.6996105E1,1.4012796E0,1.2809804E2,2.2343256E0,1.9573462E1,3.710707E0,1.9465613E0,3.1537914E0,1.1161831E2,1.6479733E1,1.8501596E1,1.0718656E0,1.9286804E0,1.7820266E0,1.9899111E0,1.1638805E0],"tree_param":{"num_deleted":"0","num_feature":"283","num_nodes":"27","size_leaf_vector":"1"}},{"base_weights":[2.4849564E-2,-1.6919722E-1,1.0630714E0,-3.872661E-1,7.92312E-1,1.1032926E0,1.1969934E-2,-4.4631743E-1,9.000959E-2,8.5363716E-1,-2.7415133E-3,5.664279E-2,2.2531945E-2,-5.8260775E-1,5.082349E-1,9.10365E-1,-8.3806814E-4,-3.312431E-2,6.16449E-2,4.1303947E-3,4.3931585E-2,5.158334E-2,1.1660586E-2],"categories":[],"categories_nodes":[],"categories_segments":[],"categories_sizes":[],"default_left":[0,0,0,0,0,0,0,0,0,0,0,0,0,0,0,0,0,0,0,0,0,0,0],"id":34,"left_children":[1,3,5,7,9,11,-1,13,-1,15,-1,-1,-1,17,19,21,-1,-1,-1,-1,-1,-1,-1],"loss_changes":[3.7182606E1,3.293432E1,6.986046E-1,1.7274706E1,1.5583668E0,1.8733978E-2,0E0,1.6553349E1,0E0,1.3578968E0,0E0,0E0,0E0,1.6742298E1,2.4730134E0,1.8577824E0,0E0,0E0,0E0,0E0,0E0,0E0,0E0],"parents":[2147483647,0,0,1,1,2,2,3,3,4,4,5,5,7,7,9,9,13,13,14,14,15,15],"right_children":[2,4,6,8,10,12,-1,14,-1,16,-1,-1,-1,18,20,22,-1,-1,-1,-1,-1,-1,-1],"split_conditions":[1E0,1E0,1E0,1E0,1E0,3E0,1.1969934E-2,1E0,9.000959E-2,4E0,-2.7415133E-3,5.664279E-2,2.2531945E-2,1E0,8E0,5E0,-8.3806814E-4,-3.312431E-2,6.16449E-2,4.1303947E-3,4.3931585E-2,5.158334E-2,1.1660586E-2],"split_indices":[131,156,130,171,31,152,0,170,0,22,0,0,0,163,10,63,0,0,0,0,0,0,0],"split_type":[0,0,0,0,0,0,0,0,0,0,0,0,0,0,0,0,0,0,0,0,0,0,0],"sum_hessian":[1.8266959E2,1.5460962E2,2.805997E1,1.26513725E2,2.8095894E1,2.6429876E1,1.6300937E0,1.2396325E2,2.5504756E0,2.6192162E1,1.9037323E0,2.458068E1,1.849197E0,1.088162E2,1.5147045E1,2.454644E1,1.6457207E0,1.04838615E2,3.9775832E0,7.617135E0,7.52991E0,2.0373333E1,4.1731086E0],"tree_param":{"num_deleted":"0","num_feature":"283","num_nodes":"23","size_leaf_vector":"1"}},{"base_weights":[3.3084415E-2,8.330771E-1,-2.306777E-1,4.0811065E-1,1.0561014E0,-4.3019792E-1,7.005545E-1,-3.4434388E-3,9.6502554E-1,5.6464523E-2,-9.3234563E-4,-5.071657E-1,1.3127126E0,8.115043E-1,-1.9247167E-1,-2.5154257E-1,4.5450386E-2,-2.0654568E-1,1.508492E0,-5.9672505E-1,5.794068E-2,8.126247E-2,4.616816E-3,9.0229666E-1,1.10643454E-1,-4.172931E-2,2.5282407E-2,-3.692719E-2,2.8958086E-2,1.7064761E-2,-3.227375E-2,1.1668694E-1,1.7962698E-2,-3.2415293E-2,1.0483102E-1,5.0355345E-2,1.0721647E-2,4.324126E-2,-3.338779E-2],"categories":[],"categories_nodes":[],"categories_segments":[],"categories_sizes":[],"default_left":[0,0,0,0,0,0,0,0,0,0,0,0,0,0,0,0,0,0,0,0,0,0,0,0,0,0,0,0,0,0,0,0,0,0,0,0,0,0,0],"id":35,"left_children":[1,3,5,7,9,11,13,15,17,-1,-1,19,21,23,25,27,-1,29,31,33,-1,-1,-1,35,37,-1,-1,-1,-1,-1,-1,-1,-1,-1,-1,-1,-1,-1,-1],"loss_changes":[3.8387875E1,3.8435116E0,2.574018E1,3.9346585E0,2.2981033E0,1.58749485E1,2.5875444E0,2.687092E0,4.954788E0,0E0,0E0,1.6999882E1,1.7850943E0,1.3012915E0,1.9999756E0,4.1987977E0,0E0,9.8748225E-1,4.0004263E0,1.5861141E1,0E0,0E0,0E0,1.1793642E0,2.729074E0,0E0,0E0,0E0,0E0,0E0,0E0,0E0,0E0,0E0,0E0,0E0,0E0,0E0,0E0],"parents":[2147483647,0,0,1,1,2,2,3,3,4,4,5,5,6,6,7,7,8,8,11,11,12,12,13,13,14,14,15,15,17,17,18,18,19,19,23,23,24,24],"right_children":[2,4,6,8,10,12,14,16,18,-1,-1,20,22,24,26,28,-1,30,32,34,-1,-1,-1,36,38,-1,-1,-1,-1,-1,-1,-1,-1,-1,-1,-1,-1,-1,-1],"split_conditions":[3E0,1E0,1E0,7E0,1E0,1E0,1E0,1E0,6E0,5.6464523E-2,-9.3234563E-4,1E0,3E0,1E0,2E0,1E0,4.5450386E-2,4E0,1.2E1,1E0,5.794068E-2,8.126247E-2,4.616816E-3,2E0,1E0,-4.172931E-2,2.5282407E-2,-3.692719E-2,2.8958086E-2,1.7064761E-2,-3.227375E-2,1.1668694E-1,1.7962698E-2,-3.2415293E-2,1.0483102E-1,5.0355345E-2,1.0721647E-2,4.324126E-2,-3.338779E-2],"split_indices":[141,131,156,64,130,163,210,170,62,0,0,162,64,25,80,156,0,67,70,160,0,0,0,123,26,0,0,0,0,0,0,0,0,0,0,0,0,0,0],"split_type":[0,0,0,0,0,0,0,0,0,0,0,0,0,0,0,0,0,0,0,0,0,0,0,0,0,0,0,0,0,0,0,0,0,0,0,0,0,0,0],"sum_hessian":[1.8001564E2,4.410038E1,1.3591525E2,1.615238E1,2.7948E1,1.12376236E2,2.3539022E1,9.859864E0,6.2925158E0,2.6118607E1,1.8293928E0,1.0830255E2,4.0736794E0,2.1018915E1,2.520108E0,8.321528E0,1.5383352E0,2.1904428E0,4.1020727E0,1.03386536E2,4.9160156E0,2.9790006E0,1.0946791E0,1.8353868E1,2.6650467E0,1.210886E0,1.309222E0,5.3159757E0,3.0055532E0,1.073283E0,1.1171598E0,1.7876852E0,2.3143878E0,1.0218879E2,1.1977444E0,1.552431E1,2.8295588E0,1.2971871E0,1.3678595E0],"tree_param":{"num_deleted":"0","num_feature":"283","num_nodes":"39","size_leaf_vector":"1"}},{"base_weights":[8.346657E-2,9.1079414E-1,-1.4705601E-1,4.5943654E-1,1.0765148E0,-3.464031E-1,7.4632907E-1,-1.4801697E-1,8.7275946E-1,5.5897325E-2,1.6075052E-2,-3.993418E-1,1.2977552E-1,4.213878E-1,1.0866214E0,-4.6029818E-1,3.196201E-2,5.414762E-2,1.504593E0,-4.6869308E-1,5.4326158E-2,6.5538776E-1,-3.248467E-1,6.1627027E-2,-1.0558281E-2,-3.795268E-2,1.09733315E-2,-2.1153573E-2,3.7879754E-2,1.155826E-1,-1.4030287E-2,-2.6169688E-2,4.64604E-2,5.4225298E-3,5.203662E-2,-3.949532E-2,2.479012E-2],"categories":[],"categories_nodes":[],"categories_segments":[],"categories_sizes":[],"default_left":[0,0,0,0,0,0,0,0,0,0,0,0,0,0,0,0,0,0,0,0,0,0,0,0,0,0,0,0,0,0,0,0,0,0,0,0,0],"id":36,"left_children":[1,3,5,7,9,11,13,15,17,-1,-1,19,-1,21,23,25,-1,27,29,31,-1,33,35,-1,-1,-1,-1,-1,-1,-1,-1,-1,-1,-1,-1,-1,-1],"loss_changes":[3.402181E1,2.4120865E0,2.5160728E1,3.1874127E0,5.0642014E-1,1.8946856E1,2.397769E0,1.7169582E0,3.742663E0,0E0,0E0,1.2239525E1,0E0,2.8049738E0,2.5292015E0,1.12612E0,0E0,1.7499398E0,6.6068993E0,8.856102E0,0E0,2.338685E0,1.9992197E0,0E0,0E0,0E0,0E0,0E0,0E0,0E0,0E0,0E0,0E0,0E0,0E0,0E0,0E0],"parents":[2147483647,0,0,1,1,2,2,3,3,4,4,5,5,6,6,7,7,8,8,11,11,13,13,14,14,15,15,17,17,18,18,19,19,21,21,22,22],"right_children":[2,4,6,8,10,12,14,16,18,-1,-1,20,-1,22,24,26,-1,28,30,32,-1,34,36,-1,-1,-1,-1,-1,-1,-1,-1,-1,-1,-1,-1,-1,-1],"split_conditions":[2E0,1E0,1E0,1E0,1E0,1E0,5E0,1E0,5E0,5.5897325E-2,1.6075052E-2,1E0,1.2977552E-1,1E0,1E0,1E0,3.196201E-2,2.3E1,1E0,1E0,5.4326158E-2,1E0,2E0,6.1627027E-2,-1.0558281E-2,-3.795268E-2,1.09733315E-2,-2.1153573E-2,3.7879754E-2,1.155826E-1,-1.4030287E-2,-2.6169688E-2,4.64604E-2,5.4225298E-3,5.203662E-2,-3.949532E-2,2.479012E-2],"split_indices":[141,131,156,79,130,160,141,276,143,0,0,162,0,71,220,156,0,8,31,246,0,149,91,0,0,0,0,0,0,0,0,0,0,0,0,0,0],"split_type":[0,0,0,0,0,0,0,0,0,0,0,0,0,0,0,0,0,0,0,0,0,0,0,0,0,0,0,0,0,0,0,0,0,0,0,0,0],"sum_hessian":[1.7668604E2,3.785966E1,1.3882637E2,1.118057E1,2.667909E1,1.1400085E2,2.4825525E1,4.787034E0,6.393536E0,2.4835537E1,1.8435535E0,1.1283469E2,1.1661628E0,1.3844182E1,1.0981343E1,3.724823E0,1.062211E0,3.2580557E0,3.1354802E0,1.0845712E2,4.377562E0,1.0632001E1,3.2121816E0,9.916624E0,1.0647193E0,2.506555E0,1.218268E0,2.17864E0,1.0794159E0,1.9562106E0,1.1792696E0,1.04974976E2,3.4821444E0,4.9242406E0,5.70776E0,2.0741997E0,1.137982E0],"tree_param":{"num_deleted":"0","num_feature":"283","num_nodes":"37","size_leaf_vector":"1"}},{"base_weights":[2.7885651E-2,7.753423E-1,-2.1647187E-1,3.6640152E-1,9.894419E-1,-4.3473613E-1,7.6752084E-1,8.549476E-2,7.748055E-2,1.0639935E0,2.9133365E-1,-4.8989812E-1,9.997075E-2,9.134656E-1,-2.0381877E-1,-1.4414012E-1,5.0759505E-2,5.5020988E-2,8.573093E-3,-2.6004065E-2,4.6213787E-2,-6.320506E-1,5.663619E-1,1.0200546E0,2.094131E-1,-4.4205952E-2,2.7640084E-2,-2.2532396E-2,3.4206755E-2,-3.696314E-2,5.678445E-2,5.086706E-2,4.3512243E-3,5.6518395E-2,-1.7018784E-3,-1.9566393E-2,4.1909065E-2],"categories":[],"categories_nodes":[],"categories_segments":[],"categories_sizes":[],"default_left":[0,0,0,0,0,0,0,0,0,0,0,0,0,0,0,0,0,0,0,0,0,0,0,0,0,0,0,0,0,0,0,0,0,0,0,0,0],"id":37,"left_children":[1,3,5,7,9,11,13,15,-1,17,19,21,-1,23,25,27,-1,-1,-1,-1,-1,29,31,33,35,-1,-1,-1,-1,-1,-1,-1,-1,-1,-1,-1,-1],"loss_changes":[3.1360619E1,3.3405266E0,2.8143753E1,5.2260294E0,1.1042194E0,1.5295395E1,3.5699654E0,3.1538255E0,0E0,5.9724426E-1,2.53442E0,1.6132517E1,0E0,1.3573589E0,2.514467E0,3.3985932E0,0E0,0E0,0E0,0E0,0E0,1.8478401E1,2.7193532E0,2.1225758E0,1.8430188E0,0E0,0E0,0E0,0E0,0E0,0E0,0E0,0E0,0E0,0E0,0E0,0E0],"parents":[2147483647,0,0,1,1,2,2,3,3,4,4,5,5,6,6,7,7,9,9,10,10,11,11,13,13,14,14,15,15,21,21,22,22,23,23,24,24],"right_children":[2,4,6,8,10,12,14,16,-1,18,20,22,-1,24,26,28,-1,-1,-1,-1,-1,30,32,34,36,-1,-1,-1,-1,-1,-1,-1,-1,-1,-1,-1,-1],"split_conditions":[3E0,1E0,1E0,1E0,1E0,1E0,1E0,6E0,7.748055E-2,3E0,1E0,1E0,9.997075E-2,1E0,2E0,1E0,5.0759505E-2,5.5020988E-2,8.573093E-3,-2.6004065E-2,4.6213787E-2,1E0,3E0,4E0,4E0,-4.4205952E-2,2.7640084E-2,-2.2532396E-2,3.4206755E-2,-3.696314E-2,5.678445E-2,5.086706E-2,4.3512243E-3,5.6518395E-2,-1.7018784E-3,-1.9566393E-2,4.1909065E-2],"split_indices":[141,131,156,138,138,160,210,80,0,152,150,170,0,25,80,156,0,0,0,0,0,163,38,52,20,0,0,0,0,0,0,0,0,0,0,0,0],"split_type":[0,0,0,0,0,0,0,0,0,0,0,0,0,0,0,0,0,0,0,0,0,0,0,0,0,0,0,0,0,0,0,0,0,0,0,0,0],"sum_hessian":[1.6978209E2,4.1294575E1,1.284875E2,1.5122061E1,2.6172514E1,1.0561804E2,2.2869467E1,1.3087259E1,2.0348012E0,2.317367E1,2.9988449E0,1.0405864E2,1.5594059E0,1.993395E1,2.9355156E0,1.1172588E1,1.9146711E0,2.2041199E1,1.1324716E0,1.3922844E0,1.6065603E0,9.206946E1,1.1989177E1,1.6923075E1,3.0108757E0,1.4569855E0,1.4785302E0,8.487618E0,2.68497E0,8.735334E1,4.716117E0,5.599015E0,6.3901615E0,1.5254312E1,1.6687628E0,1.732873E0,1.2780026E0],"tree_param":{"num_deleted":"0","num_feature":"283","num_nodes":"37","size_leaf_vector":"1"}},{"base_weights":[-7.0030373E-3,7.4574006E-1,-2.4346542E-1,9.728731E-1,3.541407E-1,-2.8028676E-1,9.188437E-2,1.0670017E0,-1.853734E-2,1.547469E-1,6.929425E-2,-3.37348E-1,5.3777803E-2,5.5176664E-2,1.4402199E-2,-5.6062173E-2,7.067039E-2,-4.7423694E-1,3.1365103E-1,1.6703563E-2,-2.6056973E-2,-2.957359E-2,1.5543582E-2,5.7781665E-3,7.795836E-2],"categories":[],"categories_nodes":[],"categories_segments":[],"categories_sizes":[],"default_left":[0,0,0,0,0,0,0,0,0,0,0,0,0,0,0,0,0,0,0,0,0,0,0,0,0],"id":38,"left_children":[1,3,5,7,9,11,-1,13,-1,15,-1,17,-1,-1,-1,19,-1,21,23,-1,-1,-1,-1,-1,-1],"loss_changes":[2.9945526E1,3.232687E0,1.0323776E1,3.5424938E0,3.1462884E0,1.0160609E1,0E0,3.5116768E-1,0E0,4.0105124E0,0E0,1.1046419E1,0E0,0E0,0E0,2.651234E0,0E0,9.520613E0,5.2103076E0,0E0,0E0,0E0,0E0,0E0,0E0],"parents":[2147483647,0,0,1,1,2,2,3,3,4,4,5,5,7,7,9,9,11,11,15,15,17,17,18,18],"right_children":[2,4,6,8,10,12,-1,14,-1,16,-1,18,-1,-1,-1,20,-1,22,24,-1,-1,-1,-1,-1,-1],"split_conditions":[3E0,1E0,1E0,2E0,1.2E1,1E0,9.188437E-2,3E0,-1.853734E-2,3.2E1,6.929425E-2,1E0,5.3777803E-2,5.5176664E-2,1.4402199E-2,1.4E1,7.067039E-2,1E0,1E0,1.6703563E-2,-2.6056973E-2,-2.957359E-2,1.5543582E-2,5.7781665E-3,7.795836E-2],"split_indices":[141,141,160,130,19,162,0,152,0,66,0,187,0,0,0,7,0,170,193,0,0,0,0,0,0],"split_type":[0,0,0,0,0,0,0,0,0,0,0,0,0,0,0,0,0,0,0,0,0,0,0,0,0],"sum_hessian":[1.6621758E2,3.921827E1,1.2699931E2,2.3882013E1,1.5336255E1,1.25641685E2,1.3576279E0,2.2510868E1,1.3711456E0,1.3816147E1,1.5201079E0,1.212884E2,4.3532863E0,2.1104433E1,1.4064342E0,1.2652482E1,1.1636649E0,1.004399E2,2.084849E1,7.033808E0,5.618674E0,8.760508E1,1.2834828E1,1.8930546E1,1.9179428E0],"tree_param":{"num_deleted":"0","num_feature":"283","num_nodes":"25","size_leaf_vector":"1"}},{"base_weights":[6.2475923E-2,-9.004088E-2,9.766607E-1,-2.6176792E-1,6.650723E-1,1.0549704E0,-1.3908711E-2,-3.3593285E-1,9.514323E-2,5.9904438E-2,4.591297E-1,5.465534E-2,1.3940756E-2,-4.8170936E-1,5.46752E-1,2.2491401E-1,9.555903E-1,-2.7941225E-2,5.963266E-2,1.0522013E-2,5.2306693E-2,2.2583123E-2,-4.062114E-2,1.43341245E-2,5.4118734E-2],"categories":[],"categories_nodes":[],"categories_segments":[],"categories_sizes":[],"default_left":[0,0,0,0,0,0,0,0,0,0,0,0,0,0,0,0,0,0,0,0,0,0,0,0,0],"id":39,"left_children":[1,3,5,7,9,11,-1,13,-1,-1,15,-1,-1,17,19,21,23,-1,-1,-1,-1,-1,-1,-1,-1],"loss_changes":[2.2927994E1,1.8497675E1,2.6033192E0,1.9236462E1,2.3548822E0,3.563099E-1,0E0,1.47848625E1,0E0,0E0,2.1931963E0,0E0,0E0,1.3241306E1,2.5450482E0,3.9843574E0,2.265873E-1,0E0,0E0,0E0,0E0,0E0,0E0,0E0,0E0],"parents":[2147483647,0,0,1,1,2,2,3,3,4,4,5,5,7,7,10,10,13,13,14,14,15,15,16,16],"right_children":[2,4,6,8,10,12,-1,14,-1,-1,16,-1,-1,18,20,22,24,-1,-1,-1,-1,-1,-1,-1,-1],"split_conditions":[1E0,1E0,2E0,1E0,1E0,3E0,-1.3908711E-2,1E0,9.514323E-2,5.9904438E-2,6E0,5.465534E-2,1.3940756E-2,1E0,1.9E1,1.7E1,2E0,-2.7941225E-2,5.963266E-2,1.0522013E-2,5.2306693E-2,2.2583123E-2,-4.062114E-2,1.43341245E-2,5.4118734E-2],"split_indices":[131,156,130,171,187,152,0,170,0,0,64,0,0,162,32,8,141,0,0,0,0,0,0,0,0],"split_type":[0,0,0,0,0,0,0,0,0,0,0,0,0,0,0,0,0,0,0,0,0,0,0,0,0],"sum_hessian":[1.6281189E2,1.4030568E2,2.2506203E1,1.1484182E2,2.5463863E1,2.1334097E1,1.1721077E0,1.1185426E2,2.9875581E0,5.7539716E0,1.970989E1,1.9945705E1,1.3883907E0,9.6389656E1,1.5464603E1,1.4379226E1,5.3306656E0,9.278267E1,3.6069896E0,1.0090498E1,5.3741055E0,1.2263235E1,2.1159906E0,1.3690119E0,3.9616537E0],"tree_param":{"num_deleted":"0","num_feature":"283","num_nodes":"25","size_leaf_vector":"1"}},{"base_weights":[3.1098356E-2,-1.3069384E-1,9.685294E-1,-3.08124E-1,7.1887004E-1,5.221494E-2,-1.3392813E-2,-3.6928117E-1,8.448633E-2,8.067751E-1,-2.0132681E-2,-4.689491E-1,5.531285E-1,5.0919676E-1,5.7867713E-2,-3.0376E-2,1.4776825E-2,4.3258895E-3,9.522586E-2,3.5324737E-2,-1.1099365E-2],"categories":[],"categories_nodes":[],"categories_segments":[],"categories_sizes":[],"default_left":[0,0,0,0,0,0,0,0,0,0,0,0,0,0,0,0,0,0,0,0,0],"id":40,"left_children":[1,3,5,7,9,-1,-1,11,-1,13,-1,15,17,19,-1,-1,-1,-1,-1,-1,-1],"loss_changes":[2.4344387E1,2.0880814E1,2.4925556E0,1.4562094E1,2.6888227E0,0E0,0E0,1.0510852E1,0E0,1.765132E0,0E0,1.0897627E1,6.981213E0,2.1754196E0,0E0,0E0,0E0,0E0,0E0,0E0,0E0],"parents":[2147483647,0,0,1,1,2,2,3,3,4,4,7,7,9,9,11,11,12,12,13,13],"right_children":[2,4,6,8,10,-1,-1,12,-1,14,-1,16,18,20,-1,-1,-1,-1,-1,-1,-1],"split_conditions":[1E0,1E0,2E0,1E0,1E0,5.221494E-2,-1.3392813E-2,1E0,8.448633E-2,5E0,-2.0132681E-2,1E0,1E0,4E0,5.7867713E-2,-3.0376E-2,1.4776825E-2,4.3258895E-3,9.522586E-2,3.5324737E-2,-1.1099365E-2],"split_indices":[131,156,130,171,31,0,0,280,0,141,0,170,28,9,0,0,0,0,0,0,0],"split_type":[0,0,0,0,0,0,0,0,0,0,0,0,0,0,0,0,0,0,0,0,0],"sum_hessian":[1.5867535E2,1.360542E2,2.2621153E1,1.130758E2,2.29784E1,2.1461302E1,1.1598506E0,1.1050814E2,2.5676568E0,2.1568504E1,1.4098959E0,1.00175606E2,1.03325405E1,1.2992589E1,8.575915E0,8.497782E1,1.51977825E1,8.471501E0,1.861039E0,1.0258317E1,2.7342718E0],"tree_param":{"num_deleted":"0","num_feature":"283","num_nodes":"21","size_leaf_vector":"1"}},{"base_weights":[4.7886968E-2,7.432512E-1,-1.6715905E-1,1.6396923E-1,9.145739E-1,-3.3638057E-1,6.183503E-1,-8.370576E-2,3.7504088E-2,9.9075884E-1,1.4833234E-1,-4.2793608E-1,1.2025584E0,2.96378E-1,9.233187E-1,2.7049756E-2,-3.267876E-1,7.4785167E-1,1.5040838E0,-3.171304E-2,3.564876E-2,-4.7903576E-1,8.81039E-2,8.3382525E-2,-1.6809976E-2,-2.745472E-1,7.023378E-1,1.0742542E0,-1.3250093E-2,-2.8009439E-2,2.082388E-2,3.911152E-3,5.3733524E-2,9.096355E-2,1.9275626E-2,-2.8023666E-2,5.1254906E-2,-4.5784153E-2,4.186426E-2,4.4538826E-2,-5.4169414E-3,1.0608837E-2,5.788358E-2],"categories":[],"categories_nodes":[],"categories_segments":[],"categories_sizes":[],"default_left":[0,0,0,0,0,0,0,0,0,0,0,0,0,0,0,0,0,0,0,0,0,0,0,0,0,0,0,0,0,0,0,0,0,0,0,0,0,0,0,0,0,0,0],"id":41,"left_children":[1,3,5,7,9,11,13,15,-1,17,19,21,23,25,27,-1,29,31,33,-1,-1,35,-1,-1,-1,37,39,41,-1,-1,-1,-1,-1,-1,-1,-1,-1,-1,-1,-1,-1,-1,-1],"loss_changes":[2.3909945E1,3.5970802E0,1.6465847E1,1.4906433E0,1.5412579E0,1.4784441E1,1.8895931E0,1.3633567E0,0E0,2.133112E0,2.127593E0,1.1624073E1,4.818426E0,3.0180004E0,2.2292032E0,0E0,1.3172895E0,4.2326145E0,1.908886E0,0E0,0E0,1.2201319E1,0E0,0E0,0E0,4.8900595E0,1.2277088E0,4.603691E-1,0E0,0E0,0E0,0E0,0E0,0E0,0E0,0E0,0E0,0E0,0E0,0E0,0E0,0E0,0E0],"parents":[2147483647,0,0,1,1,2,2,3,3,4,4,5,5,6,6,7,7,9,9,10,10,11,11,12,12,13,13,14,14,16,16,17,17,18,18,21,21,25,25,26,26,27,27],"right_children":[2,4,6,8,10,12,14,16,-1,18,20,22,24,26,28,-1,30,32,34,-1,-1,36,-1,-1,-1,38,40,42,-1,-1,-1,-1,-1,-1,-1,-1,-1,-1,-1,-1,-1,-1,-1],"split_conditions":[3E0,1E0,1E0,1E0,4.7E1,1E0,5E0,2E1,3.7504088E-2,5.9E1,1E0,1E0,6E0,2E0,1E0,2.7049756E-2,2.3E1,1E0,1E0,-3.171304E-2,3.564876E-2,1E0,8.81039E-2,8.3382525E-2,-1.6809976E-2,6E0,1E0,7E0,-1.3250093E-2,-2.8009439E-2,2.082388E-2,3.911152E-3,5.3733524E-2,9.096355E-2,1.9275626E-2,-2.8023666E-2,5.1254906E-2,-4.5784153E-2,4.186426E-2,4.4538826E-2,-5.4169414E-3,1.0608837E-2,5.788358E-2],"split_indices":[141,150,156,128,7,163,141,61,0,1,132,160,3,151,220,0,8,132,31,0,0,162,0,0,0,64,71,12,0,0,0,0,0,0,0,0,0,0,0,0,0,0,0],"split_type":[0,0,0,0,0,0,0,0,0,0,0,0,0,0,0,0,0,0,0,0,0,0,0,0,0,0,0,0,0,0,0,0,0,0,0,0,0,0,0,0,0,0,0],"sum_hessian":[1.5806413E2,3.67558E1,1.2130833E2,8.83607E0,2.791973E1,1.0027743E2,2.1030903E1,6.8138914E0,2.0221782E0,2.5128294E1,2.7914357E0,9.532804E1,4.949387E0,1.1189425E1,9.841476E0,1.5653917E0,5.2485E0,1.8724617E1,6.403676E0,1.1182497E0,1.6731861E0,9.3917915E1,1.4101262E0,3.736316E0,1.2130713E0,4.784463E0,6.404963E0,8.817504E0,1.0239729E0,4.1816773E0,1.0668224E0,6.54786E0,1.2176757E1,4.507222E0,1.8964536E0,8.968929E1,4.2286243E0,3.1464746E0,1.6379881E0,5.1167803E0,1.2881824E0,1.0905691E0,7.726935E0],"tree_param":{"num_deleted":"0","num_feature":"283","num_nodes":"43","size_leaf_vector":"1"}},{"base_weights":[6.0369752E-2,7.36635E-1,-1.5014876E-1,8.41112E-1,9.141301E-2,-3.119981E-1,5.971431E-1,3.4025198E-1,9.8982096E-1,-3.1131518E-1,5.6995946E-1,-3.9664087E-1,1.2036511E0,2.2986825E-1,9.802793E-1,5.453937E-1,-1.7339945E-2,1.0390223E0,4.302413E-4,1.3962989E-2,-3.0422935E-2,3.5759468E-2,7.079636E-3,-4.8228526E-1,5.951E-2,7.833214E-2,-3.542581E-4,-2.2197063E-1,6.904142E-1,3.3889994E-1,5.7040006E-2,8.074132E-3,3.8715344E-2,3.9607942E-2,7.855465E-2,2.800229E-3,-3.864149E-2,-3.988083E-2,1.3067277E-2,5.159647E-2,-1.4726226E-2,3.520883E-2,-1.3236758E-2],"categories":[],"categories_nodes":[],"categories_segments":[],"categories_sizes":[],"default_left":[0,0,0,0,0,0,0,0,0,0,0,0,0,0,0,0,0,0,0,0,0,0,0,0,0,0,0,0,0,0,0,0,0,0,0,0,0,0,0,0,0,0,0],"id":42,"left_children":[1,3,5,7,9,11,13,15,17,19,21,23,25,27,29,31,-1,33,-1,-1,-1,-1,-1,35,-1,-1,-1,37,39,41,-1,-1,-1,-1,-1,-1,-1,-1,-1,-1,-1,-1,-1],"loss_changes":[2.238904E1,2.4387856E0,1.472048E1,2.0463467E0,1.3959533E0,1.323343E1,2.8332791E0,1.4363165E0,1.1568165E0,8.859015E-1,1.0046053E-1,1.3474713E1,2.431365E0,2.7344432E0,6.7710876E-1,5.0797033E-1,0E0,1.774601E0,0E0,0E0,0E0,0E0,0E0,1.4240355E1,0E0,0E0,0E0,2.1609745E0,2.4520388E0,9.561266E-1,0E0,0E0,0E0,0E0,0E0,0E0,0E0,0E0,0E0,0E0,0E0,0E0,0E0],"parents":[2147483647,0,0,1,1,2,2,3,3,4,4,5,5,6,6,7,7,8,8,9,9,10,10,11,11,12,12,13,13,14,14,15,15,17,17,23,23,27,27,28,28,29,29],"right_children":[2,4,6,8,10,12,14,16,18,20,22,24,26,28,30,32,-1,34,-1,-1,-1,-1,-1,36,-1,-1,-1,38,40,42,-1,-1,-1,-1,-1,-1,-1,-1,-1,-1,-1,-1,-1],"split_conditions":[3E0,3E0,1E0,1E0,2.4E1,1E0,5E0,1E0,4.7E1,1E0,1.3E1,1E0,2E0,5E0,1E0,1E0,-1.7339945E-2,5.9E1,4.302413E-4,1.3962989E-2,-3.0422935E-2,3.5759468E-2,7.079636E-3,1E0,5.951E-2,7.833214E-2,-3.542581E-4,1E0,9E0,2E0,5.7040006E-2,8.074132E-3,3.8715344E-2,3.9607942E-2,7.855465E-2,2.800229E-3,-3.864149E-2,-3.988083E-2,1.3067277E-2,5.159647E-2,-1.4726226E-2,3.520883E-2,-1.3236758E-2],"split_indices":[141,40,156,150,8,163,141,149,7,11,97,162,81,44,17,132,0,1,0,0,0,0,0,150,0,0,0,149,43,37,0,0,0,0,0,0,0,0,0,0,0,0,0],"split_type":[0,0,0,0,0,0,0,0,0,0,0,0,0,0,0,0,0,0,0,0,0,0,0,0,0,0,0,0,0,0,0,0,0,0,0,0,0,0,0,0,0,0,0],"sum_hessian":[1.5548663E2,3.6318546E1,1.1916808E2,3.0995955E1,5.3225923E0,9.843205E1,2.073603E1,7.8487983E0,2.3147156E1,3.0800147E0,2.2425776E0,9.392503E1,4.5070233E0,1.1404055E1,9.331977E0,6.2028995E0,1.6458988E0,2.1985804E1,1.1613518E0,1.0511104E0,2.0289044E0,1.1747333E0,1.0678443E0,8.977576E1,4.1492734E0,3.2412913E0,1.2657322E0,6.017928E0,5.3861265E0,2.49083E0,6.8411465E0,2.9540627E0,3.2488368E0,1.6718012E1,5.2677913E0,3.1753502E1,5.8022255E1,2.4498153E0,3.5681129E0,3.9639628E0,1.4221636E0,1.4480277E0,1.0428022E0],"tree_param":{"num_deleted":"0","num_feature":"283","num_nodes":"43","size_leaf_vector":"1"}},{"base_weights":[4.140698E-2,-9.9233136E-2,9.1902316E-1,-1.589947E-1,8.278513E-2,5.1037055E-2,-1.7488701E-2,-3.138826E-1,5.335E-1,-4.6190926E-1,4.7261274E-1,5.2828986E-2,3.2963917E-1,-2.7245006E-2,6.391202E-2,-6.13824E-4,3.4565877E-2,5.5524E-4,4.9900066E-2],"categories":[],"categories_nodes":[],"categories_segments":[],"categories_sizes":[],"default_left":[0,0,0,0,0,0,0,0,0,0,0,0,0,0,0,0,0,0,0],"id":43,"left_children":[1,3,5,7,-1,-1,-1,9,11,13,15,-1,17,-1,-1,-1,-1,-1,-1],"loss_changes":[1.9201626E1,1.4353367E1,3.1295376E0,1.4200815E1,0E0,0E0,0E0,1.2739636E1,2.2413683E0,1.3841425E1,1.8675184E0,0E0,4.018654E0,0E0,0E0,0E0,0E0,0E0,0E0],"parents":[2147483647,0,0,1,1,2,2,3,3,7,7,8,8,9,9,10,10,12,12],"right_children":[2,4,6,8,-1,-1,-1,10,12,14,16,-1,18,-1,-1,-1,-1,-1,-1],"split_conditions":[1E0,1E0,2E0,1E0,8.278513E-2,5.1037055E-2,-1.7488701E-2,1E0,2E0,1E0,2E0,5.2828986E-2,6E0,-2.7245006E-2,6.391202E-2,-6.13824E-4,3.4565877E-2,5.5524E-4,4.9900066E-2],"split_indices":[131,171,130,156,0,0,0,170,10,185,4,0,64,0,0,0,0,0,0],"split_type":[0,0,0,0,0,0,0,0,0,0,0,0,0,0,0,0,0,0,0],"sum_hessian":[1.5383052E2,1.333481E2,2.0482426E1,1.2983614E2,3.5119631E0,1.9143242E1,1.3391846E0,1.0655098E2,2.328515E1,9.002081E1,1.653016E1,5.3569875E0,1.7928164E1,8.657859E1,3.4422235E0,5.431617E0,1.1098544E1,1.2830092E1,5.0980716E0],"tree_param":{"num_deleted":"0","num_feature":"283","num_nodes":"19","size_leaf_vector":"1"}},{"base_weights":[5.482647E-2,-8.9215934E-2,9.531404E-1,-1.4905825E-1,8.20987E-2,5.301833E-2,-1.70718E-2,-2.0685942E-1,1.177655E0,-2.4993193E-1,8.570384E-2,1.7512574E0,-2.6797839E-3,-1.813467E-2,2.294844E-2,1.5989617E-2,1.1491889E-1],"categories":[],"categories_nodes":[],"categories_segments":[],"categories_sizes":[],"default_left":[0,0,0,0,0,0,0,0,0,0,0,0,0,0,0,0,0],"id":44,"left_children":[1,3,5,7,-1,-1,-1,9,11,13,-1,15,-1,-1,-1,-1,-1],"loss_changes":[1.924306E1,1.3558444E1,3.214037E0,9.839687E0,0E0,0E0,0E0,1.0420179E1,3.8889575E0,9.67782E0,0E0,2.1592598E0,0E0,0E0,0E0,0E0,0E0],"parents":[2147483647,0,0,1,1,2,2,3,3,7,7,8,8,9,9,11,11],"right_children":[2,4,6,8,-1,-1,-1,10,12,14,-1,16,-1,-1,-1,-1,-1],"split_conditions":[1E0,1E0,2E0,1E0,8.20987E-2,5.301833E-2,-1.70718E-2,1E0,5E0,1E0,8.570384E-2,2E0,-2.6797839E-3,-1.813467E-2,2.294844E-2,1.5989617E-2,1.1491889E-1],"split_indices":[131,171,130,185,0,0,0,160,21,170,0,68,0,0,0,0,0],"split_type":[0,0,0,0,0,0,0,0,0,0,0,0,0,0,0,0,0],"sum_hessian":[1.4705814E2,1.27512505E2,1.9545628E1,1.241354E2,3.37711E0,1.8217628E1,1.3280004E0,1.19761795E2,4.373603E0,1.1798612E2,1.7756732E0,2.6955073E0,1.6780955E0,1.0221555E2,1.5770568E1,1.1835122E0,1.5119952E0],"tree_param":{"num_deleted":"0","num_feature":"283","num_nodes":"17","size_leaf_vector":"1"}},{"base_weights":[6.691995E-2,7.2126067E-1,-1.3566957E-1,8.0291927E-1,5.9153743E-2,-2.9249644E-1,5.838264E-1,6.12792E-1,1.1936383E0,-2.7094154E-2,3.0128041E-2,-3.5131556E-1,7.708765E-2,2.6420072E-1,9.357712E-1,1.3901097E-1,8.755755E-1,1.5736346E0,3.2997924E-1,-4.2693678E-1,5.7681795E-2,-6.03584E-2,4.864606E-2,3.2693464E-1,5.5049267E-2,3.5660695E-2,-7.2099143E-3,4.713672E-2,8.815623E-3,1.0649516E-1,2.119035E-2,-1.6105471E-2,3.3369206E-2,-2.5777627E-2,5.1316626E-2,3.069812E-2,-2.8881932E-2,3.450888E-2,-1.3029018E-2],"categories":[],"categories_nodes":[],"categories_segments":[],"categories_sizes":[],"default_left":[0,0,0,0,0,0,0,0,0,0,0,0,0,0,0,0,0,0,0,0,0,0,0,0,0,0,0,0,0,0,0,0,0,0,0,0,0,0,0],"id":45,"left_children":[1,3,5,7,9,11,13,15,17,-1,-1,19,-1,21,23,25,27,29,31,33,-1,35,-1,37,-1,-1,-1,-1,-1,-1,-1,-1,-1,-1,-1,-1,-1,-1,-1],"loss_changes":[1.9765348E1,1.8574638E0,1.3048817E1,1.5926418E0,1.9425215E0,1.0723316E1,2.0879116E0,2.7542734E0,2.4953518E0,0E0,0E0,1.0991612E1,0E0,2.8815942E0,5.9426975E-1,1.6363609E0,5.22707E-1,3.00772E0,1.1108814E0,1.1935415E1,0E0,3.6191912E0,0E0,9.155052E-1,0E0,0E0,0E0,0E0,0E0,0E0,0E0,0E0,0E0,0E0,0E0,0E0,0E0,0E0,0E0],"parents":[2147483647,0,0,1,1,2,2,3,3,4,4,5,5,6,6,7,7,8,8,11,11,13,13,14,14,15,15,16,16,17,17,18,18,19,19,21,21,23,23],"right_children":[2,4,6,8,10,12,14,16,18,-1,-1,20,-1,22,24,26,28,30,32,34,-1,36,-1,38,-1,-1,-1,-1,-1,-1,-1,-1,-1,-1,-1,-1,-1,-1,-1],"split_conditions":[3E0,3E0,1E0,5.9E1,1E0,1E0,5E0,1E0,1E0,-2.7094154E-2,3.0128041E-2,1E0,7.708765E-2,5E0,1E0,3E0,1E0,1.2E1,4E0,1E0,5.7681795E-2,6E0,4.864606E-2,2E0,5.5049267E-2,3.5660695E-2,-7.2099143E-3,4.713672E-2,8.815623E-3,1.0649516E-1,2.119035E-2,-1.6105471E-2,3.3369206E-2,-2.5777627E-2,5.1316626E-2,3.069812E-2,-2.8881932E-2,3.450888E-2,-1.3029018E-2],"split_indices":[141,100,156,1,131,171,141,131,147,0,0,162,0,64,17,34,130,70,77,163,0,4,0,37,0,0,0,0,0,0,0,0,0,0,0,0,0,0,0],"split_type":[0,0,0,0,0,0,0,0,0,0,0,0,0,0,0,0,0,0,0,0,0,0,0,0,0,0,0,0,0,0,0,0,0,0,0,0,0,0,0],"sum_hessian":[1.4736386E2,3.423348E1,1.1313039E2,3.0285635E1,3.9478443E0,9.337182E1,1.9758568E1,2.209997E1,8.185666E0,1.8758548E0,2.0719895E0,9.125403E1,2.117786E0,1.1272191E1,8.486377E0,8.430085E0,1.3669885E1,5.113675E0,3.0719912E0,8.75701E1,3.6839337E0,8.359011E0,2.913181E0,2.4471495E0,6.039227E0,2.2830014E0,6.1470838E0,1.2154368E1,1.5155162E0,2.8719187E0,2.2417562E0,1.0629683E0,2.009023E0,8.31454E1,4.424698E0,3.5475535E0,4.8114567E0,1.4042212E0,1.0429283E0],"tree_param":{"num_deleted":"0","num_feature":"283","num_nodes":"39","size_leaf_vector":"1"}},{"base_weights":[2.2882288E-2,-1.0548777E-1,8.760409E-1,-2.472437E-1,5.292477E-1,9.8647577E-1,-1.7259689E-2,-3.063877E-1,7.522649E-2,5.1699307E-2,3.3434868E-1,5.1709898E-2,4.217831E-1,-4.112783E-1,6.566251E-1,-1.9860398E-2,8.0342066E-1,2.8439328E-2,3.0837967E-3,-2.8726554E-2,1.7564869E-2,-6.944105E-3,5.8594476E-2,2.9232977E-2,-2.8955868E-2,4.887442E-2,4.8457407E-3],"categories":[],"categories_nodes":[],"categories_segments":[],"categories_sizes":[],"default_left":[0,0,0,0,0,0,0,0,0,0,0,0,0,0,0,0,0,0,0,0,0,0,0,0,0,0,0],"id":46,"left_children":[1,3,5,7,9,11,-1,13,-1,-1,15,-1,17,19,21,23,25,-1,-1,-1,-1,-1,-1,-1,-1,-1,-1],"loss_changes":[1.6090006E1,1.1635258E1,2.9314985E0,1.1360255E1,1.9818177E0,4.5562744E-2,0E0,1.0633127E1,0E0,0E0,3.0975416E0,0E0,1.2806141E-1,1.1796017E1,4.4510794E0,4.241145E0,8.8957596E-1,0E0,0E0,0E0,0E0,0E0,0E0,0E0,0E0,0E0,0E0],"parents":[2147483647,0,0,1,1,2,2,3,3,4,4,5,5,7,7,10,10,12,12,13,13,14,14,15,15,16,16],"right_children":[2,4,6,8,10,12,-1,14,-1,-1,16,-1,18,20,22,24,26,-1,-1,-1,-1,-1,-1,-1,-1,-1,-1],"split_conditions":[1E0,1E0,2E0,1E0,2E0,1E0,-1.7259689E-2,1E0,7.522649E-2,5.1699307E-2,1.2E1,5.1709898E-2,6E0,1E0,1.1E1,1E0,1E1,2.8439328E-2,3.0837967E-3,-2.8726554E-2,1.7564869E-2,-6.944105E-3,5.8594476E-2,2.9232977E-2,-2.8955868E-2,4.887442E-2,4.8457407E-3],"split_indices":[131,156,130,171,10,280,0,280,0,0,66,0,73,170,66,24,43,0,0,0,0,0,0,0,0,0,0],"split_type":[0,0,0,0,0,0,0,0,0,0,0,0,0,0,0,0,0,0,0,0,0,0,0,0,0,0,0],"sum_hessian":[1.4507004E2,1.2685867E2,1.8211367E1,1.0419844E2,2.2660234E1,1.6877396E1,1.3339726E0,1.015935E2,2.6049376E0,5.1131773E0,1.7547056E1,1.4795584E1,2.0818107E0,9.213153E1,9.46197E0,1.0543233E1,7.0038238E0,1.0668195E0,1.0149912E0,7.608894E1,1.6042587E1,4.006647E0,5.4553237E0,5.044759E0,5.498474E0,5.311606E0,1.6922177E0],"tree_param":{"num_deleted":"0","num_feature":"283","num_nodes":"27","size_leaf_vector":"1"}},{"base_weights":[5.933852E-2,-6.104317E-2,8.671281E-1,-2.0890981E-1,5.84255E-1,9.7948384E-1,-1.6848534E-2,-2.7002084E-1,1.1643888E0,8.486334E-1,2.2127232E-1,5.1457506E-2,1.05643375E-2,-4.0997347E-1,4.5843175E-1,1.6333265E0,1.6160582E-3,1.8673924E-1,1.0153096E0,-3.9497092E-1,7.127085E-1,-2.616103E-2,1.967409E-2,8.045446E-3,4.3988716E-2,2.350278E-2,9.928062E-2,4.0078547E-2,-3.969279E-2,5.431795E-2,1.1568403E-2,3.6574524E-2,-4.4887897E-2,4.3169394E-2,-1.51268E-3],"categories":[],"categories_nodes":[],"categories_segments":[],"categories_sizes":[],"default_left":[0,0,0,0,0,0,0,0,0,0,0,0,0,0,0,0,0,0,0,0,0,0,0,0,0,0,0,0,0,0,0,0,0,0,0],"id":47,"left_children":[1,3,5,7,9,11,-1,13,15,17,19,-1,-1,21,23,25,-1,27,29,31,33,-1,-1,-1,-1,-1,-1,-1,-1,-1,-1,-1,-1,-1,-1],"loss_changes":[1.3873699E1,1.2013706E1,2.8327656E0,8.885512E0,2.067113E0,4.378891E-1,0E0,1.0239122E1,2.3570051E0,1.2713308E0,3.689917E0,0E0,0E0,7.77884E0,1.9094319E0,3.737507E-1,0E0,2.981152E0,3.2530785E-1,3.8491673E0,7.6699686E-1,0E0,0E0,0E0,0E0,0E0,0E0,0E0,0E0,0E0,0E0,0E0,0E0,0E0,0E0],"parents":[2147483647,0,0,1,1,2,2,3,3,4,4,5,5,7,7,8,8,9,9,10,10,13,13,14,14,15,15,17,17,18,18,19,19,20,20],"right_children":[2,4,6,8,10,12,-1,14,16,18,20,-1,-1,22,24,26,-1,28,30,32,34,-1,-1,-1,-1,-1,-1,-1,-1,-1,-1,-1,-1,-1,-1],"split_conditions":[1E0,1E0,2E0,1E0,9E0,3E0,-1.6848534E-2,1E0,6E0,1E0,1.3E1,5.1457506E-2,1.05643375E-2,3E1,5E0,3E0,1.6160582E-3,3E0,1E0,7E0,1E0,-2.616103E-2,1.967409E-2,8.045446E-3,4.3988716E-2,2.350278E-2,9.928062E-2,4.0078547E-2,-3.969279E-2,5.431795E-2,1.1568403E-2,3.6574524E-2,-4.4887897E-2,4.3169394E-2,-1.51268E-3],"split_indices":[131,156,130,185,7,152,0,170,10,66,66,0,0,3,38,18,0,6,111,72,26,0,0,0,0,0,0,0,0,0,0,0,0,0,0],"split_type":[0,0,0,0,0,0,0,0,0,0,0,0,0,0,0,0,0,0,0,0,0,0,0,0,0,0,0,0,0,0,0,0,0,0,0],"sum_hessian":[1.4112599E2,1.2362681E2,1.7499184E1,